/*
 * Copyright (c) 2025 EdgeImpulse Inc.
 *
 * Generated by Edge Impulse and licensed under the applicable Edge Impulse
 * Terms of Service. Community and Professional Terms of Service
 * (https://edgeimpulse.com/legal/terms-of-service) or Enterprise Terms of
 * Service (https://edgeimpulse.com/legal/enterprise-terms-of-service),
 * according to your product plan subscription (the “License”).
 *
 * This software, documentation and other associated files (collectively referred
 * to as the “Software”) is a single SDK variation generated by the Edge Impulse
 * platform and requires an active paid Edge Impulse subscription to use this
 * Software for any purpose.
 *
 * You may NOT use this Software unless you have an active Edge Impulse subscription
 * that meets the eligibility requirements for the applicable License, subject to
 * your full and continued compliance with the terms and conditions of the License,
 * including without limitation any usage restrictions under the applicable License.
 *
 * If you do not have an active Edge Impulse product plan subscription, or if use
 * of this Software exceeds the usage limitations of your Edge Impulse product plan
 * subscription, you are not permitted to use this Software and must immediately
 * delete and erase all copies of this Software within your control or possession.
 * Edge Impulse reserves all rights and remedies available to enforce its rights.
 *
 * Unless required by applicable law or agreed to in writing, the Software is
 * distributed on an "AS IS" BASIS, WITHOUT WARRANTIES OR CONDITIONS OF ANY KIND,
 * either express or implied. See the License for the specific language governing
 * permissions, disclaimers and limitations under the License.
 */
// Generated on: 07.08.2025 07:54:20

#include <stdio.h>
#include <stdlib.h>
#include "edge-impulse-sdk/tensorflow/lite/c/builtin_op_data.h"
#include "edge-impulse-sdk/tensorflow/lite/c/common.h"
#include "edge-impulse-sdk/tensorflow/lite/micro/micro_mutable_op_resolver.h"
#include "edge-impulse-sdk/porting/ei_classifier_porting.h"

#if EI_CLASSIFIER_PRINT_STATE
#if defined(__cplusplus) && EI_C_LINKAGE == 1
extern "C" {
    extern void ei_printf(const char *format, ...);
}
#else
extern void ei_printf(const char *format, ...);
#endif
#endif

#define STRINGIZE(x) #x
#define STRINGIZE_VALUE_OF(x) STRINGIZE(x)

#if defined (__GNUC__)  /* GNU compiler */
#define ALIGN(X) __attribute__((aligned(X)))
#define DEFINE_SECTION(x) __attribute__((section(x)))
#elif defined (_MSC_VER)
#define ALIGN(X) __declspec(align(X))
#elif defined (__TASKING__) /* TASKING Compiler */
#define ALIGN(X) __align(X)
#define DEFINE_SECTION(x) __attribute__((section(x)))
#elif defined (__ARMCC_VERSION) /* Arm Compiler */
#define ALIGN(X) __ALIGNED(x)
#define DEFINE_SECTION(x) __attribute__((section(x)))
#elif defined (__ICCARM__) /* IAR Compiler */
#define ALIGN(x) __attribute__((aligned(x)))
#define DEFINE_SECTION(x) __attribute__((section(x)))
#elif defined (__clang__) /* LLVM/Clang Compiler */
#define ALIGN(X) __ALIGNED(x)
#define DEFINE_SECTION(x) __attribute__((section(x)))
#endif

#if defined(EI_MODEL_SECTION) && (defined(__GNUC__) || defined(__clang__))
#define MODEL_SECTION(X) __attribute__((section(STRINGIZE_VALUE_OF(X))))
#else
#define MODEL_SECTION(X)
#endif

#ifndef EI_MAX_SCRATCH_BUFFER_COUNT
#ifndef CONFIG_IDF_TARGET_ESP32S3
#define EI_MAX_SCRATCH_BUFFER_COUNT 14
#else
#define EI_MAX_SCRATCH_BUFFER_COUNT 28
#endif // CONFIG_IDF_TARGET_ESP32S3
#endif // EI_MAX_SCRATCH_BUFFER_COUNT

#ifndef EI_MAX_OVERFLOW_BUFFER_COUNT
#define EI_MAX_OVERFLOW_BUFFER_COUNT 10
#endif // EI_MAX_OVERFLOW_BUFFER_COUNT

using namespace tflite;
using namespace tflite::ops;
using namespace tflite::ops::micro;

namespace {

#if defined(EI_CLASSIFIER_ALLOCATION_STATIC_HIMAX) || defined(EI_CLASSIFIER_ALLOCATION_STATIC_HIMAX_GNU)
constexpr int kTensorArenaSize = 1048576;
#else
constexpr int kTensorArenaSize = 1048576;
#endif

#if defined(EI_CLASSIFIER_ALLOCATION_STATIC)
#if defined (EI_TENSOR_ARENA_LOCATION)
uint8_t tensor_arena[kTensorArenaSize] ALIGN(16) DEFINE_SECTION(STRINGIZE_VALUE_OF(EI_TENSOR_ARENA_LOCATION));
#else
uint8_t tensor_arena[kTensorArenaSize] ALIGN(16);
#endif
#elif defined(EI_CLASSIFIER_ALLOCATION_STATIC_HIMAX)
#pragma Bss(".tensor_arena")
uint8_t tensor_arena[kTensorArenaSize] ALIGN(16);
#pragma Bss()
#elif defined(EI_CLASSIFIER_ALLOCATION_STATIC_HIMAX_GNU)
uint8_t tensor_arena[kTensorArenaSize] ALIGN(16) __attribute__((section(".tensor_arena")));
#else
#define EI_CLASSIFIER_ALLOCATION_HEAP 1
uint8_t* tensor_arena = NULL;
#endif

static uint8_t* tensor_boundary;
static uint8_t* current_location;

template <int SZ, class T> struct TfArray {
  int sz; T elem[SZ];
};

enum used_operators_e {
  OP_CONV_2D, OP_DEPTHWISE_CONV_2D, OP_PAD, OP_ADD, OP_SOFTMAX,  OP_LAST
};

struct TensorInfo_t { // subset of TfLiteTensor used for initialization from constant memory
  TfLiteAllocationType allocation_type;
  TfLiteType type;
  void* data;
  TfLiteIntArray* dims;
  size_t bytes;
  TfLiteQuantization quantization;
};

typedef struct {
  TfLiteTensor tensor;
  int16_t index;
} TfLiteTensorWithIndex;

typedef struct {
  TfLiteEvalTensor tensor;
  int16_t index;
} TfLiteEvalTensorWithIndex;

TfLiteContext ctx{};
static const int MAX_TFL_TENSOR_COUNT = 4;
static TfLiteTensorWithIndex tflTensors[MAX_TFL_TENSOR_COUNT];
static const int MAX_TFL_EVAL_COUNT = 4;
static TfLiteEvalTensorWithIndex tflEvalTensors[MAX_TFL_EVAL_COUNT];
TfLiteRegistration registrations[OP_LAST];

namespace g0 {
const TfArray<4, int> tensor_dimension0 = { 4, { 1,96,96,3 } };
const TfArray<1, float> quant0_scale = { 1, { 0.0039215688593685627, } };
const TfArray<1, int> quant0_zero = { 1, { -128 } };
const TfLiteAffineQuantization quant0 = { (TfLiteFloatArray*)&quant0_scale, (TfLiteIntArray*)&quant0_zero, 0 };
const MODEL_SECTION(EI_MODEL_SECTION) ALIGN(16) int32_t tensor_data1[4*2] = { 
  0, 0, 
  0, 1, 
  0, 1, 
  0, 0, 
};
const TfArray<2, int> tensor_dimension1 = { 2, { 4,2 } };
const MODEL_SECTION(EI_MODEL_SECTION) ALIGN(16) int32_t tensor_data2[7] = { 54059, -87413, -77857, -81288, -62541, -66398, -79065, };
const TfArray<1, int> tensor_dimension2 = { 1, { 7 } };
const TfArray<7, float> quant2_scale = { 7, { 7.9708064731676131e-05, 7.7373355452436954e-05, 8.686994988238439e-05, 8.3203944086562842e-05, 8.5923049482516944e-05, 8.2952050433959812e-05, 8.5542742453981191e-05, } };
const TfArray<7, int> quant2_zero = { 7, { 0,0,0,0,0,0,0 } };
const TfLiteAffineQuantization quant2 = { (TfLiteFloatArray*)&quant2_scale, (TfLiteIntArray*)&quant2_zero, 0 };
const MODEL_SECTION(EI_MODEL_SECTION) ALIGN(16) int8_t tensor_data3[7*1*1*32] = { 
  /* [0][0][][] */ 86,-78,89,42,-54,-2,96,97,8,-23,76,-59,80,1,40,68,108,126,76,0,18,-55,-4,-30,106,27,-46,110,-121,-127,95,13, 
  /* [1][0][][] */ 66,-91,14,-12,45,-45,43,-96,127,22,-102,-77,-78,99,106,96,-46,47,68,-100,83,78,-20,13,-67,58,104,25,79,-42,-16,-9, 
  /* [2][0][][] */ -29,-84,124,112,41,-68,87,79,-98,116,-116,-1,22,-14,10,-96,-15,-18,114,-126,-32,127,-115,-6,25,-25,81,-20,-105,39,51,40, 
  /* [3][0][][] */ 82,21,-46,-5,-6,-106,37,-51,-121,54,23,-21,4,-29,-90,33,-84,80,-64,91,34,7,127,-11,-25,-91,-64,-36,60,-79,78,39, 
  /* [4][0][][] */ -40,80,-35,121,126,-101,-55,-55,-18,113,91,7,-56,-24,-41,-59,-49,43,127,27,-110,58,-101,14,-26,62,-90,25,-85,117,-37,-90, 
  /* [5][0][][] */ 81,-59,-18,95,-49,109,121,86,-121,-54,121,-17,-82,18,-8,-99,-110,-2,14,-33,99,102,-108,37,57,-85,127,118,60,-53,-66,2, 
  /* [6][0][][] */ 110,-13,-33,44,-78,-88,-60,-9,71,-103,20,-123,-25,-3,6,90,18,-25,70,-77,-127,117,3,78,17,-46,-112,-81,-127,-2,-13,53, 
};
const TfArray<4, int> tensor_dimension3 = { 4, { 7,1,1,32 } };
const TfArray<7, float> quant3_scale = { 7, { 0.0028389757499098778, 0.0027558200526982546, 0.0030940619762986898, 0.0029634891543537378, 0.0030603359919041395, 0.0029545174911618233, 0.0030467906035482883, } };
const TfLiteAffineQuantization quant3 = { (TfLiteFloatArray*)&quant3_scale, (TfLiteIntArray*)&g0::quant2_zero, 0 };
const MODEL_SECTION(EI_MODEL_SECTION) ALIGN(16) int32_t tensor_data4[32] = { 25, 25, -25, 25, 25, -25, 25, -25, -25, 25, 25, 20, -25, 23, 2, -25, -25, 25, -7, -25, -25, 25, -25, 25, 7, 22, -25, 25, -14, 25, 5, 20, };
const TfArray<1, int> tensor_dimension4 = { 1, { 32 } };
const TfArray<32, float> quant4_scale = { 32, { 3.9897080569062382e-05, 3.963860945077613e-05, 3.9898397517390549e-05, 4.0076582081383094e-05, 3.9332146116066724e-05, 3.9541369915241376e-05, 4.0136252209777012e-05, 3.9860136894276366e-05, 4.0152470319299027e-05, 3.9877635572338477e-05, 4.0171227738028392e-05, 3.9643451600568369e-05, 3.9549959183204919e-05, 3.9982784073799849e-05, 3.9819431549403816e-05, 4.0092643757816404e-05, 3.9491624193033203e-05, 3.9737762563163415e-05, 3.975312938564457e-05, 3.9784903492545709e-05, 3.9609643863514066e-05, 4.0149599954020232e-05, 3.9915430534165353e-05, 3.978582753916271e-05, 3.9948474295670167e-05, 4.0207632991950959e-05, 4.0088798414217308e-05, 3.9921924326336011e-05, 3.908164580934681e-05, 4.0212056774180382e-05, 3.967536031268537e-05, 4.0041581087280065e-05, } };
const TfArray<32, int> quant4_zero = { 32, { 0,0,0,0,0,0,0,0,0,0,0,0,0,0,0,0,0,0,0,0,0,0,0,0,0,0,0,0,0,0,0,0 } };
const TfLiteAffineQuantization quant4 = { (TfLiteFloatArray*)&quant4_scale, (TfLiteIntArray*)&quant4_zero, 0 };
const MODEL_SECTION(EI_MODEL_SECTION) ALIGN(16) int8_t tensor_data5[32*1*1*96] = { 
  /* [0][0][][] */ -41,-55,112,8,102,-15,-96,-109,65,-107,-118,-1,59,9,-40,56,-60,-35,-72,-60,-77,-112,4,116,-125,9,82,-52,117,-3,-23,-89,89,-68,-101,68,-120,-87,-100,30,80,-93,-105,108,54,-118,116,-21,18,-62,-38,103,-81,-54,-103,114,27,70,127,-119,-83,88,-56,50,-10,15,75,100,57,104,90,-127,107,-109,44,91,-116,14,-66,33,57,19,99,-7,-65,-46,-94,110,30,124,-11,-123,14,72,30,21, 
  /* [1][0][][] */ -63,36,-78,-3,-42,87,41,8,89,-111,-113,114,71,-29,25,72,118,-44,39,127,-52,-6,40,30,39,19,-45,117,11,5,108,-71,66,114,-11,30,57,66,-15,-70,-68,7,-26,-105,-38,40,-33,-59,-25,-94,123,63,12,91,-87,-56,31,108,66,90,-63,126,-72,-87,-63,38,83,45,113,29,20,11,-124,100,-54,52,90,-50,-45,79,-87,91,-57,-127,31,127,-74,-72,86,87,102,27,91,98,29,-6, 
  /* [2][0][][] */ 48,40,-67,99,-24,-65,94,100,-108,91,-40,123,97,-17,87,-121,-64,-30,36,57,-106,-17,119,21,-27,84,110,9,-76,84,84,100,-75,-23,-101,-117,-94,101,112,-31,-127,-83,13,-7,-91,125,-29,-84,107,39,95,-97,-52,67,22,17,-75,100,-68,4,-20,62,-39,74,97,48,51,93,-104,70,8,-79,35,-81,34,30,-59,-28,4,10,39,-103,-13,-46,0,-106,-22,-36,95,120,-27,6,-49,-92,-52,-74, 
  /* [3][0][][] */ 83,3,44,-21,-72,58,-118,45,57,26,73,7,102,107,82,10,115,109,-58,18,127,-91,-67,-120,-22,-118,-84,118,52,-104,97,12,-59,-35,-15,-13,-96,-23,47,55,-24,-96,-101,4,82,34,-48,-87,76,-86,48,2,106,34,100,-104,-123,-124,-124,-61,-101,42,-37,83,64,-33,-63,-32,-32,-72,7,112,25,-111,62,-50,37,108,106,-65,-93,-125,43,103,35,52,-43,-124,-86,51,1,-114,104,-99,-94,46, 
  /* [4][0][][] */ 59,112,0,61,-27,-25,36,20,69,99,-6,58,32,-37,-10,-69,-24,-3,-68,18,119,-96,96,31,-18,-2,72,-63,-50,41,-70,-55,77,127,19,-109,-51,-5,-121,55,-52,-65,-77,-95,39,118,41,63,27,-45,-16,-80,-96,51,-91,23,41,-100,31,18,10,-79,-40,-71,-48,63,4,-37,32,-108,-103,-88,-57,24,111,60,69,-22,-6,-61,8,-46,-105,-19,3,78,101,4,-126,-79,51,51,35,111,-104,-18, 
  /* [5][0][][] */ 103,-100,84,88,42,-125,28,59,113,-127,-4,-76,23,105,37,38,65,64,-81,105,32,54,17,-31,-114,-71,-20,-101,50,30,15,-110,-43,1,-77,17,-126,-41,48,22,-98,-58,42,103,-37,24,36,-58,-118,111,25,32,40,16,37,-25,115,51,-60,-45,32,-75,38,-79,-36,107,-31,29,78,-1,110,-78,-54,83,-31,-80,8,-54,11,89,114,44,28,115,-90,86,-8,39,72,-110,126,96,-21,25,77,-90, 
  /* [6][0][][] */ 23,-44,124,85,-86,-64,2,74,-11,-85,11,-91,95,62,127,-122,48,7,4,113,-80,-123,121,67,-61,-83,-5,-57,-25,-118,54,-78,-92,-124,-44,-108,-7,47,-112,90,97,65,29,-12,-116,117,-90,-44,-85,23,-25,-65,66,-53,105,-24,11,-4,-67,123,-99,6,76,-72,-51,75,111,-48,88,-2,-109,-2,64,-69,-92,-40,-83,-104,-56,-27,40,-25,51,-24,-72,-88,-39,-98,94,105,106,22,-52,-66,86,-26, 
  /* [7][0][][] */ 127,75,-40,-47,-78,124,-22,0,126,5,-105,16,59,-96,50,79,56,17,-3,123,57,37,-6,92,-75,111,43,62,-85,114,-20,39,28,27,72,109,-114,94,-10,-31,102,-84,92,74,55,-4,110,-121,57,-62,-120,-75,-28,94,18,33,125,-98,4,-63,7,-6,86,-121,-74,-61,72,25,-117,23,71,91,91,28,65,63,-70,59,-108,51,98,-39,-20,-81,93,35,-119,100,87,6,93,71,-60,-45,-3,-70, 
  /* [8][0][][] */ 13,35,-48,-97,63,28,-81,-23,7,39,47,102,4,-48,-91,-78,-74,101,-69,18,32,-27,87,117,-126,99,48,80,-73,20,-97,124,99,-35,50,-3,124,3,-21,75,86,109,-118,-127,-12,-31,-25,116,21,-100,-67,-2,-69,-9,-34,-116,51,115,-102,111,120,45,45,116,-34,-50,-24,106,-91,56,35,-2,82,73,9,23,-51,113,88,79,37,87,-120,-92,27,44,79,-45,39,-41,-90,107,-86,-108,-50,66, 
  /* [9][0][][] */ 2,9,125,51,90,-115,-51,-126,46,54,-9,59,-28,-84,-109,-27,10,1,-105,-74,5,109,-115,-112,123,-8,-12,30,-11,-65,-95,108,67,2,30,-20,-81,19,-36,-46,53,-72,60,-99,88,23,-112,59,56,-13,-88,-52,81,-80,-75,112,94,-62,-15,-3,-95,114,91,-81,-93,6,114,52,-42,111,119,-96,9,89,-113,-101,-83,-127,-41,115,37,30,111,32,-46,-102,40,-16,109,36,-31,118,121,0,66,-38, 
  /* [10][0][][] */ -68,88,99,-73,-18,113,115,29,41,33,25,-75,106,88,-37,12,-38,86,-106,-67,-20,31,61,-74,34,58,-126,-121,-53,85,-101,-88,92,107,127,79,-44,7,-37,36,-38,124,-121,-40,-104,-62,-4,-64,-1,1,39,11,66,23,-69,-38,-108,-18,31,-49,-4,85,119,45,125,-82,-104,-25,23,-24,-102,-72,91,71,-89,115,-17,69,71,23,83,-1,59,111,-108,72,107,-27,38,9,-6,-73,-57,-54,-49,-72, 
  /* [11][0][][] */ 120,13,-15,112,127,49,58,33,121,100,-84,121,-8,-91,30,-71,-61,-111,69,43,33,82,27,-119,-114,-103,-23,76,85,-9,28,-22,-96,-78,57,50,-68,82,-32,-64,-29,113,-81,6,-45,-64,-98,-97,84,112,120,54,-101,-99,19,28,-74,-61,-31,-96,-87,95,90,10,30,94,-61,32,95,62,-91,-78,44,113,-108,56,-73,37,-49,96,-115,-27,-78,-48,50,-87,16,-28,-103,-8,12,-110,-94,-36,-77,-42, 
  /* [12][0][][] */ 13,74,-60,0,96,8,-39,37,-83,64,-17,15,-48,13,52,-86,-108,-36,-52,-89,28,-12,18,105,-73,-54,108,-108,99,14,-40,125,-94,-76,-51,17,-4,-82,-20,46,124,43,-121,-44,-23,-91,-43,126,-48,-127,-85,113,39,0,-90,92,-22,-65,58,72,63,123,-6,58,120,35,-50,127,60,109,44,77,90,124,-18,-6,-39,38,-127,-100,-63,112,49,15,-40,34,58,124,-102,-118,101,46,109,-18,30,81, 
  /* [13][0][][] */ 119,-63,111,103,100,124,87,68,78,-111,12,-29,97,77,72,-51,-127,-76,-77,31,73,-30,126,-50,-70,44,6,20,-94,-97,90,40,44,111,-22,40,-91,-31,26,74,-68,82,-56,14,-46,31,-2,-31,37,108,-38,-114,-107,31,109,-87,-51,31,-23,-81,-29,127,-83,16,-58,-68,-100,93,-41,-13,105,-3,-97,41,-81,-45,-114,72,87,-67,55,-102,102,22,-88,-108,99,126,-13,-56,-81,58,121,-57,72,-5, 
  /* [14][0][][] */ -62,-105,96,76,85,-30,-16,-123,-84,-39,75,89,-32,-88,-97,-93,-56,-64,15,27,-48,36,-1,67,-122,-77,-36,34,-123,-127,-84,42,114,-24,-36,6,104,127,37,-120,-6,-120,38,97,73,-122,71,-91,126,43,83,57,106,-16,-17,14,-53,9,53,106,-18,-88,-29,78,-99,-13,84,-116,-97,-99,-95,101,4,90,54,-78,60,-115,60,39,50,-23,-127,-42,-125,-97,-121,115,118,9,97,-57,92,111,-18,68, 
  /* [15][0][][] */ 20,-26,-28,81,101,-91,68,-102,66,0,-74,14,118,5,-94,-117,98,13,-96,28,54,22,80,119,88,75,44,102,25,62,73,-106,7,10,-65,-2,-69,122,119,-70,19,122,-50,-23,29,-81,-44,-83,-6,-83,-1,35,-103,-106,-51,-5,74,60,-49,120,-46,-68,3,113,-35,107,-74,6,-61,9,69,-77,23,-12,64,-112,0,62,115,86,-85,65,-113,-65,-127,-36,-96,42,93,77,-117,-41,61,121,-112,123, 
  /* [16][0][][] */ -74,1,112,-65,47,123,-58,45,54,54,-116,79,-12,-51,-56,-64,118,87,78,72,122,87,-41,58,-36,61,-72,70,-108,17,45,15,-114,85,63,65,-37,59,-53,-73,25,-49,80,99,69,112,112,-13,-61,-118,9,121,-43,126,74,51,30,99,75,15,127,119,38,69,61,16,-39,102,50,109,-33,-9,34,101,69,95,-11,108,-117,-14,16,-88,65,14,13,110,112,12,86,15,-14,123,78,-32,-89,29, 
  /* [17][0][][] */ 40,-117,35,90,-46,-121,-70,-104,48,-95,94,56,109,68,-123,55,38,60,114,125,-100,-12,18,-54,29,74,-83,31,117,-57,-33,84,-33,-24,37,7,-50,111,-94,-31,-101,-42,-15,-9,10,15,95,-118,93,116,-15,29,-18,86,109,-80,-127,96,-90,-119,37,-100,82,108,-92,-79,49,-110,-118,-2,120,33,19,-126,-71,74,127,-50,48,-64,14,-15,-83,-99,-120,81,89,-35,23,85,-105,-126,-13,104,14,17, 
  /* [18][0][][] */ -101,108,117,-73,-8,-118,-110,6,-5,80,-114,-49,-38,37,66,-62,24,-25,63,-24,110,-48,24,-84,31,-103,-17,120,33,38,1,47,50,-29,-114,-114,-34,37,-36,69,-43,0,-53,-9,-122,17,28,-3,20,-26,77,34,-116,-9,4,94,-45,38,-20,-125,92,118,15,40,-73,-127,-33,96,75,-83,-76,118,-104,-40,-94,-111,59,60,-1,-80,-60,-7,-29,-71,110,-36,76,74,-115,-80,-67,115,95,-58,53,-22, 
  /* [19][0][][] */ 24,35,85,45,66,-86,107,101,104,-62,35,-8,-97,40,-56,68,83,-108,122,67,-20,90,-56,18,85,-81,35,-67,-94,-121,-66,54,91,-85,39,2,13,-70,-56,-104,52,-120,-85,15,-88,35,86,-96,-25,45,-39,52,-32,20,11,-6,30,109,1,-25,63,-55,111,71,-70,2,-24,2,-4,61,84,-50,-63,-124,-55,-82,-20,-117,19,118,66,-119,-27,87,-89,-4,13,0,100,36,-1,74,-31,127,79,-48, 
  /* [20][0][][] */ -7,78,79,104,-90,103,23,66,19,16,-90,6,-5,97,48,-76,-52,-37,-67,-30,28,-45,-80,-74,85,-75,-108,53,28,17,-40,125,112,50,-12,64,47,-32,-15,-114,-87,-35,-93,-107,-25,-66,-72,116,69,-125,-107,45,54,123,60,4,102,82,108,98,123,-56,-70,-32,-27,-68,-52,18,-88,-78,-71,87,-66,-87,36,23,121,86,121,120,95,9,94,-23,67,127,-13,83,24,106,32,73,27,30,-1,9, 
  /* [21][0][][] */ 99,81,76,-110,103,-83,77,17,-3,-70,-78,44,3,40,-55,-97,-111,-33,27,-15,113,-53,75,-90,60,-93,-36,77,15,3,-9,-24,5,21,-99,-122,117,102,-126,-36,-9,6,29,-16,-105,-90,-87,98,-25,-74,-8,91,36,73,-102,27,-57,54,-55,127,57,-81,12,-15,85,32,-39,-75,-114,-4,63,81,34,-23,76,71,-121,-32,66,112,13,106,35,-79,26,-104,68,-91,-113,82,115,-123,-49,-73,70,-33, 
  /* [22][0][][] */ 35,-59,-79,-105,97,-59,117,61,-102,94,-81,-115,123,-121,-124,-92,41,91,-121,-66,95,-80,34,34,100,-5,-124,108,-64,-85,-71,-119,53,66,20,13,3,-17,-64,-125,2,-14,2,102,60,-126,99,-24,-68,-88,5,-19,-69,-99,-52,37,-14,-33,-24,-33,118,-82,-83,-123,-72,20,-123,-49,121,113,-25,-3,-73,8,70,-98,48,-56,70,102,115,-106,-82,-127,85,91,106,-36,-61,35,-70,66,21,21,-33,108, 
  /* [23][0][][] */ 67,-98,5,59,102,-125,3,-111,60,-89,91,80,17,-117,19,-44,94,-37,-118,107,98,-89,111,-38,-19,-17,88,22,74,49,76,-43,-43,45,20,34,104,-9,-123,5,-115,-1,8,-119,-76,-99,120,28,83,-121,-98,-58,85,-66,-59,95,-92,-25,105,48,-122,-100,-59,-13,34,39,-127,-120,66,-18,119,-79,-9,-39,-42,-103,47,-25,100,124,-59,-58,21,-115,100,7,121,-25,-99,44,112,-9,112,-59,-36,90, 
  /* [24][0][][] */ -84,-52,-112,-75,-92,-120,-74,-99,72,127,89,49,124,68,-42,-125,-87,47,30,-57,104,-86,-59,-40,57,-32,80,63,115,59,5,-68,-2,11,54,32,-57,-92,67,-22,-79,-107,112,5,24,-39,47,79,-94,-50,-24,17,77,65,75,-79,-3,84,28,2,98,-5,39,104,-106,105,-50,-96,-110,58,-61,-28,-41,43,103,110,67,-81,-112,-88,-85,-101,-67,-124,3,69,-13,-108,29,-115,7,-85,-19,32,-101,35, 
  /* [25][0][][] */ -93,-61,-85,-11,98,-79,-110,57,49,-121,-42,23,76,-2,-118,-24,-78,64,35,-118,72,90,-13,-63,14,-57,-111,41,81,-97,41,123,99,-118,46,77,105,-66,-25,-20,-90,103,-113,3,105,44,69,38,-112,98,-77,3,46,-22,-68,11,-23,55,-116,80,127,46,55,48,0,80,-19,-8,-98,-6,-27,-122,36,-123,76,23,76,78,16,22,53,53,-52,88,-81,-51,-111,-98,-25,-41,111,23,-125,-16,-22,-89, 
  /* [26][0][][] */ 62,-122,-20,-11,-101,-1,-9,-10,-112,-127,118,95,-81,-48,16,-13,124,35,-82,-67,18,80,109,18,59,72,17,54,17,9,-96,3,-28,-62,-101,-107,-67,95,-51,121,-103,113,65,37,-73,81,-40,114,-21,35,-2,110,15,-48,1,-109,106,72,63,30,5,-97,73,-18,126,-18,-57,65,-89,89,96,107,90,-99,-89,11,53,-113,-101,13,-27,84,92,-77,88,4,-45,18,-85,126,15,23,-57,127,59,98, 
  /* [27][0][][] */ 15,12,-65,-107,-124,-72,-71,-15,48,110,43,-113,-27,64,91,-28,74,-14,69,-86,-97,15,-27,-22,-109,52,-113,0,73,33,-32,-7,69,77,-94,-89,-93,-66,-117,98,-98,22,33,21,109,29,76,113,99,75,65,-77,-94,-89,-4,-33,112,-24,-120,-82,-60,-62,-33,61,46,-47,-117,116,56,14,-124,11,68,-53,-6,-91,54,-67,97,113,94,-27,127,-57,-76,-86,-33,36,-49,-1,-35,-51,63,22,96,64, 
  /* [28][0][][] */ 98,-3,95,48,-125,-70,-108,-84,-43,-118,65,76,-88,-95,3,110,102,122,-79,81,-31,25,-119,-83,-127,89,-93,-66,-81,-84,-2,-21,-113,18,87,79,19,-118,-46,33,113,46,-104,55,-119,-10,15,52,25,-70,-87,-37,-95,26,57,43,63,-14,88,56,-9,-48,-106,5,63,80,-24,89,-87,27,-115,-47,76,40,-6,-110,-127,-71,-95,49,-82,-102,118,-32,67,-123,71,-90,-114,-77,-40,-73,-45,57,-107,-78, 
  /* [29][0][][] */ 58,60,62,-52,-89,16,-121,11,109,-11,-91,-96,117,-107,-47,-45,-102,112,32,-66,-76,-32,62,10,-33,12,-42,-26,-104,-3,114,0,57,5,-81,-55,-8,113,-6,104,55,117,-44,91,4,116,-53,-23,22,-3,66,-96,80,-102,123,54,-96,64,-49,119,-120,106,-96,-50,-60,-63,60,98,105,-88,40,-72,122,84,68,30,126,-62,-28,37,-2,-85,-5,-78,71,127,50,88,-35,107,79,90,-105,22,2,66, 
  /* [30][0][][] */ 30,-70,-65,40,-107,26,-68,-14,124,-17,0,-45,-109,19,65,12,-4,39,100,-109,45,-107,-121,16,-121,27,-74,127,-13,-117,-100,7,-90,-75,-127,-58,17,-17,-5,28,97,-81,-11,108,114,-47,112,66,-76,81,18,-112,102,-56,-9,113,-87,-60,-88,-60,-113,-3,-79,-30,-117,-93,-101,99,-65,121,51,-38,-97,116,44,-91,-64,-76,-80,-64,33,29,-113,-24,-114,33,-118,116,-40,-124,86,58,-37,-2,8,-75, 
  /* [31][0][][] */ 92,-96,44,113,58,72,-59,-103,-28,-17,-81,-90,111,-127,-47,124,-61,-92,44,57,73,43,-29,119,52,-118,44,47,-73,-75,56,121,24,27,-94,-4,109,-29,-69,-115,69,-70,-29,39,10,-54,-38,31,81,31,105,-27,-120,-58,-82,30,-122,78,8,127,-38,1,97,-76,80,125,-44,-79,83,-125,-124,16,-100,-41,8,11,-59,-46,58,102,-77,-41,65,82,65,109,-97,23,24,-51,-88,-55,17,116,-1,-23, 
};
const TfArray<4, int> tensor_dimension5 = { 4, { 32,1,1,96 } };
const TfArray<32, float> quant5_scale = { 32, { 0.0016956259496510029, 0.0016846408834680915, 0.0016956818290054798, 0.0017032546456903219, 0.0016716162208467722, 0.0016805081395432353, 0.0017057906370609999, 0.0016940557397902012, 0.0017064799321815372, 0.0016947995172813535, 0.001707277144305408, 0.0016848465893417597, 0.0016808732179924846, 0.001699268352240324, 0.0016923258081078529, 0.0017039373051375151, 0.0016783940372988582, 0.0016888548852875829, 0.001689507975243032, 0.0016908583929762244, 0.0016834097914397717, 0.0017063579289242625, 0.0016964056994765997, 0.0016908976249396801, 0.0016978101339191198, 0.0017088244203478098, 0.0017037739744409919, 0.0016966817202046514, 0.0016609699232503772, 0.0017090124310925603, 0.0016862027114257216, 0.0017017670907080173, } };
const TfLiteAffineQuantization quant5 = { (TfLiteFloatArray*)&quant5_scale, (TfLiteIntArray*)&g0::quant4_zero, 0 };
const MODEL_SECTION(EI_MODEL_SECTION) ALIGN(16) int32_t tensor_data6[96] = { -3528, 6298, 14233, 4522, -4989, -7366, 31923, 3456, 5168, -2564, 17228, -418, -14850, 3618, 23263, 10450, 23928, 9112, -6400, -10585, 7601, 49085, 33178, 30183, 1648, 1660, 6866, 4857, 3576, -8143, 11280, -4093, -441, 7518, 87, 1661, 18359, 8299, -2890, 7729, 15559, 8741, 8214, 18958, 7039, 8233, 3342, 12652, 7740, -9229, -10320, 944, -413, -2183, 3817, -10, 363, -1689, -6408, 17109, -1447, 2342, -2085, -2737, -5639, 12082, 35924, 3065, -3861, 1362, 2637, 3427, 2546, -2074, 1031, 17928, -699, 29680, 26412, -1709, 16530, 3084, -680, 2445, 24233, 12628, 7546, 2555, 9594, 6666, -514, -12545, 1123, -3172, -2653, -3240, };
const TfArray<1, int> tensor_dimension6 = { 1, { 96 } };
const TfArray<96, float> quant6_scale = { 96, { 0.00017639166617300361, 0.0002498881658539176, 0.00016846107610035688, 0.0001941896480275318, 0.00021207581448834389, 0.00020066248544026166, 0.00010410510003566742, 0.0002060596743831411, 0.00011758191249100491, 0.00025417952565476298, 0.00011554647062439471, 0.00017694261623546481, 0.00017184068565256894, 0.00078507099533453584, 0.00013292879157233983, 0.00011067368177464232, 7.8167497122194618e-05, 0.00015891909424681216, 0.00030513873207382858, 0.0001608135353308171, 8.1373225839342922e-05, 5.5142369092209265e-05, 9.2500420578289777e-05, 5.5751635954948142e-05, 0.00011896893556695431, 0.00029129406902939081, 0.00043455540435388684, 0.00022294989321380854, 0.00014598427515011281, 0.00024269221466965973, 0.00013045786181464791, 0.00018613743304740638, 0.00013104792742524296, 0.00015411387721542269, 0.00019436441652942449, 0.00014758558245375752, 0.00010402791667729616, 0.00012972472177352756, 0.00021552693215198815, 0.0002304074150742963, 8.2465281593613327e-05, 0.00029730255482718349, 0.00018380129768047482, 0.00012248409620951861, 0.00027245847741141915, 0.00012299905938562006, 0.00015122110198717564, 0.00017147765902336687, 0.00017480096721556038, 0.00014243846817407757, 0.00015285455447155982, 0.00010728451889008284, 0.00034585612593218684, 0.0001413154968759045, 0.00020476056670304388, 0.00021209093392826617, 0.00027704416424967349, 0.00015752726176287979, 0.0002398109354544431, 0.00010824041964951903, 0.00051408063154667616, 0.00027745790430344641, 0.00013189585297368467, 0.00028436369029805064, 0.00033147999783977866, 0.00015871388313826174, 6.0510486946441233e-05, 0.00013090252468828112, 0.0002997152041643858, 0.00024146138457581401, 0.00015142999473027885, 0.00015309521404560655, 0.00053332030074670911, 0.00020223927276674658, 0.00016601682000327855, 0.0001207225868711248, 0.00018194389122072607, 6.3205952756106853e-05, 6.9121961132623255e-05, 0.00011023613478755578, 8.8802720711100847e-05, 0.00010700561688281596, 0.00011994225496891886, 0.00010103122622240335, 7.5109514000359923e-05, 0.00018901641306001693, 0.0003116334555670619, 0.00011611232184804976, 7.3683659138623625e-05, 0.00030828578746877611, 0.00017659761942923069, 0.00015769751917105168, 0.00019592138414736837, 0.00032513707992620766, 0.00023525972210336477, 0.0001218063771375455, } };
const TfArray<96, int> quant6_zero = { 96, { 0,0,0,0,0,0,0,0,0,0,0,0,0,0,0,0,0,0,0,0,0,0,0,0,0,0,0,0,0,0,0,0,0,0,0,0,0,0,0,0,0,0,0,0,0,0,0,0,0,0,0,0,0,0,0,0,0,0,0,0,0,0,0,0,0,0,0,0,0,0,0,0,0,0,0,0,0,0,0,0,0,0,0,0,0,0,0,0,0,0,0,0,0,0,0,0 } };
const TfLiteAffineQuantization quant6 = { (TfLiteFloatArray*)&quant6_scale, (TfLiteIntArray*)&quant6_zero, 0 };
const MODEL_SECTION(EI_MODEL_SECTION) ALIGN(16) int8_t tensor_data7[96*1*1*16] = { 
  /* [0][0][][] */ -28,91,-2,-127,-43,-31,-32,-68,-20,17,3,77,20,-58,-7,50, 
  /* [1][0][][] */ -38,22,-64,-3,-30,-30,28,-85,62,54,-60,18,4,2,43,-127, 
  /* [2][0][][] */ 2,10,-37,39,45,20,-57,-64,127,-35,-4,10,-15,96,-72,22, 
  /* [3][0][][] */ 48,-68,5,-112,8,-28,-9,-3,114,-2,75,44,-7,47,21,127, 
  /* [4][0][][] */ -81,50,15,41,7,-18,-3,41,3,10,20,-23,-127,-14,-16,27, 
  /* [5][0][][] */ 2,67,116,5,22,79,-77,77,-54,73,-24,-32,36,-45,-127,20, 
  /* [6][0][][] */ 36,-59,122,-127,40,1,-44,99,-76,-103,54,-34,4,92,-22,83, 
  /* [7][0][][] */ 38,117,-26,-58,95,13,3,-51,127,97,-29,21,28,-23,63,46, 
  /* [8][0][][] */ 12,-86,10,-85,23,-56,17,-74,25,61,72,-8,17,127,79,59, 
  /* [9][0][][] */ 7,-33,-5,127,42,-9,41,-61,-64,111,31,-21,-6,-63,-7,-8, 
  /* [10][0][][] */ -7,24,-45,-127,10,1,-10,36,31,-35,17,-27,-16,-43,-2,28, 
  /* [11][0][][] */ 1,17,23,-19,80,-30,85,-57,-83,38,-1,31,-1,127,-68,-31, 
  /* [12][0][][] */ 68,-18,-125,-14,31,-78,27,23,16,59,-77,-47,-40,127,-2,31, 
  /* [13][0][][] */ -17,7,-25,11,4,-127,-3,18,4,-12,7,0,13,-14,10,11, 
  /* [14][0][][] */ 25,-26,94,-31,61,7,-127,-93,-18,-43,29,19,8,-60,-19,-32, 
  /* [15][0][][] */ -86,21,-17,-49,-2,1,127,57,-38,45,76,-28,12,84,64,2, 
  /* [16][0][][] */ 15,61,127,95,2,19,88,73,-91,14,-73,-7,16,10,8,-82, 
  /* [17][0][][] */ -41,-111,-15,31,-73,-24,-60,15,-127,-31,14,-46,-3,41,61,-38, 
  /* [18][0][][] */ 3,42,6,66,41,5,22,-4,71,42,-30,-31,13,127,56,21, 
  /* [19][0][][] */ 11,-24,41,13,109,20,-102,-70,-103,-81,-38,-127,-39,-45,-1,-39, 
  /* [20][0][][] */ 97,-37,-60,-34,9,-127,13,24,-51,36,-108,-14,29,7,22,-1, 
  /* [21][0][][] */ 75,-25,76,-17,-17,-1,-10,104,-7,-100,75,35,-1,127,48,85, 
  /* [22][0][][] */ -24,41,-40,127,-54,4,90,68,-8,35,-12,41,-2,9,29,-1, 
  /* [23][0][][] */ 69,-3,109,-94,59,-15,-12,54,14,17,4,-22,5,-15,-127,28, 
  /* [24][0][][] */ -127,40,11,-17,3,106,26,-20,-3,19,99,-9,-77,18,58,-28, 
  /* [25][0][][] */ 25,24,13,21,11,9,65,-50,-4,-127,-14,-18,-11,-29,11,20, 
  /* [26][0][][] */ -38,-4,-2,7,-50,-11,-39,-35,-111,-35,2,-35,10,127,-36,53, 
  /* [27][0][][] */ -5,29,7,66,37,-30,-17,-32,56,7,-25,0,6,127,-9,13, 
  /* [28][0][][] */ 16,70,58,62,127,-8,31,37,-90,-22,-49,-33,19,94,47,-35, 
  /* [29][0][][] */ 0,-3,8,16,29,-1,9,37,-20,-12,-15,-127,-2,-15,-17,4, 
  /* [30][0][][] */ -20,82,-49,73,-39,-19,42,-127,-44,57,-17,-3,57,37,78,86, 
  /* [31][0][][] */ -37,-22,-12,-69,-6,0,-48,-104,21,79,-12,-127,-33,-46,4,21, 
  /* [32][0][][] */ -127,-77,-9,59,53,36,-14,7,-3,-44,-102,45,73,1,61,70, 
  /* [33][0][][] */ -13,-40,-41,-7,-91,-10,-81,1,64,18,14,-48,29,-117,127,31, 
  /* [34][0][][] */ 47,-7,65,24,44,17,-47,82,-82,-47,67,21,13,-7,-17,127, 
  /* [35][0][][] */ -41,54,-74,18,-12,-21,30,-120,87,94,-84,2,7,-6,81,-127, 
  /* [36][0][][] */ -34,40,13,127,36,24,123,27,-13,42,-26,-12,-12,24,-66,-51, 
  /* [37][0][][] */ 3,-9,11,-69,0,-4,-36,-48,-77,-12,1,-8,2,-127,62,-34, 
  /* [38][0][][] */ 42,90,-9,-48,127,-1,31,-38,113,74,-16,-3,9,-28,45,14, 
  /* [39][0][][] */ -28,63,-8,-127,-15,8,-44,34,45,-72,-25,-19,13,72,44,30, 
  /* [40][0][][] */ -1,-27,19,-95,-4,-17,-5,-39,-127,-1,-12,-27,-6,-119,92,-66, 
  /* [41][0][][] */ -9,-17,-45,-18,3,-33,19,-8,-30,15,-45,-8,-127,11,28,33, 
  /* [42][0][][] */ 127,87,-29,-20,-75,-51,-20,-52,3,22,84,-52,-61,49,99,-111, 
  /* [43][0][][] */ -11,114,-76,-3,65,-19,115,-38,54,88,-47,-3,29,-127,-80,-56, 
  /* [44][0][][] */ -23,-13,8,-39,55,2,-87,-127,-19,-8,13,4,-3,-36,67,-61, 
  /* [45][0][][] */ -10,46,-127,-41,26,-71,24,-74,8,29,3,-77,25,-25,52,-20, 
  /* [46][0][][] */ 8,-1,-18,-90,-13,12,20,-30,-119,-23,9,14,-10,-127,68,-33, 
  /* [47][0][][] */ 21,49,24,-16,127,-14,-27,15,-54,40,0,22,5,1,114,-28, 
  /* [48][0][][] */ -127,-75,-22,34,65,16,11,-20,-2,-18,-108,41,60,8,78,51, 
  /* [49][0][][] */ 15,12,101,80,127,-2,47,31,-127,-51,-39,-81,14,123,21,-61, 
  /* [50][0][][] */ 29,-19,-91,-11,28,-127,-41,-13,-20,-24,-4,-42,36,-18,-6,11, 
  /* [51][0][][] */ 7,38,42,12,28,5,1,24,-127,60,6,-115,12,-114,-25,88, 
  /* [52][0][][] */ 3,53,1,52,47,-1,22,33,68,85,-29,-53,36,127,63,22, 
  /* [53][0][][] */ -7,-52,-22,-17,-92,-8,-81,-2,49,22,16,-59,30,-127,124,17, 
  /* [54][0][][] */ 58,-16,-47,9,127,83,-120,-47,-81,-6,-34,-78,0,-45,-16,-41, 
  /* [55][0][][] */ 48,-8,4,2,38,-41,-68,-127,-36,-72,-59,10,-7,-26,20,-6, 
  /* [56][0][][] */ -18,14,23,-21,-6,-25,-93,68,-9,127,-2,-14,29,5,-4,7, 
  /* [57][0][][] */ 0,17,-49,-22,-56,-52,127,91,-29,29,-13,-2,30,25,124,-10, 
  /* [58][0][][] */ 48,23,-127,32,92,101,-34,50,-104,-41,-1,8,-36,24,-1,-22, 
  /* [59][0][][] */ -101,69,109,21,-78,-66,127,125,21,6,31,-16,15,11,74,0, 
  /* [60][0][][] */ 7,-6,-52,-2,19,-127,-22,-2,-9,-16,-2,-22,28,-15,2,7, 
  /* [61][0][][] */ 21,-8,26,127,78,20,26,6,-98,-1,15,42,-13,22,34,-53, 
  /* [62][0][][] */ -47,127,17,-46,-28,-9,-68,56,-20,-62,-83,-53,-7,-93,-56,-38, 
  /* [63][0][][] */ -42,27,-29,127,-80,12,-70,-34,-61,-25,-24,-37,25,66,40,38, 
  /* [64][0][][] */ 10,2,3,41,3,10,-14,62,26,3,-16,-43,-11,-127,50,-3, 
  /* [65][0][][] */ -17,-39,8,-127,40,-37,61,-34,-10,46,10,-109,-14,2,20,-46, 
  /* [66][0][][] */ 32,-19,67,-24,3,3,-7,110,6,-74,43,32,1,127,18,76, 
  /* [67][0][][] */ 0,51,-17,-127,-13,-2,-58,35,81,-96,-28,-6,30,80,73,35, 
  /* [68][0][][] */ -30,36,127,11,11,4,-5,0,-41,-18,-19,-35,13,-19,86,-32, 
  /* [69][0][][] */ 127,80,-17,-2,-89,-35,-28,-38,5,20,93,-56,-63,59,69,-98, 
  /* [70][0][][] */ 41,7,-55,-10,-27,26,54,127,-33,90,-35,7,12,63,-27,20, 
  /* [71][0][][] */ 8,-3,-7,10,4,-79,2,20,-35,17,-79,6,-127,-3,42,49, 
  /* [72][0][][] */ 11,19,-127,12,8,11,28,91,-41,-25,7,-8,22,14,0,6, 
  /* [73][0][][] */ -49,22,41,4,47,-36,-76,-127,20,-75,38,-18,14,-46,41,-16, 
  /* [74][0][][] */ 1,35,38,127,19,-7,-82,85,-69,17,-49,45,21,-121,37,-95, 
  /* [75][0][][] */ -14,29,-55,12,13,-8,21,-17,123,26,-13,-4,13,127,-39,1, 
  /* [76][0][][] */ -1,-14,-2,18,3,-13,-11,61,15,-30,-20,-127,-5,-7,8,13, 
  /* [77][0][][] */ -13,29,-17,127,-52,20,82,100,12,41,-8,38,-14,-17,-10,-12, 
  /* [78][0][][] */ 4,2,30,-120,49,-34,-37,42,25,-51,8,-39,28,127,22,48, 
  /* [79][0][][] */ -18,-95,-77,-58,-86,-5,23,-82,127,19,26,57,18,41,45,-51, 
  /* [80][0][][] */ -45,-7,127,-102,19,-43,17,-106,-72,52,-49,-119,35,112,94,-51, 
  /* [81][0][][] */ -46,44,-127,27,69,-124,-14,55,-5,-45,64,-2,26,3,11,-5, 
  /* [82][0][][] */ 127,-9,-5,17,14,-113,-20,17,-18,-11,-101,-4,106,6,-6,25, 
  /* [83][0][][] */ -37,78,-119,-86,-36,-17,46,-127,68,53,-47,-126,16,52,53,104, 
  /* [84][0][][] */ -35,34,70,-37,5,-29,65,-127,-44,48,-11,-63,32,55,68,-3, 
  /* [85][0][][] */ -86,127,27,-123,-76,-30,-27,-4,-57,-4,-70,23,7,-10,-95,-28, 
  /* [86][0][][] */ -6,6,-33,0,-30,-32,127,24,0,-27,-1,9,7,30,86,-18, 
  /* [87][0][][] */ -24,-41,3,-122,9,-35,52,-16,-5,18,-10,-127,-18,3,10,-40, 
  /* [88][0][][] */ 105,-28,45,-9,25,-122,2,35,-56,41,-127,-55,44,34,78,-1, 
  /* [89][0][][] */ 25,-22,-41,-52,27,-12,-26,-9,-50,6,33,-69,127,-7,29,-45, 
  /* [90][0][][] */ -2,-53,39,-64,68,-4,-69,87,61,-86,-37,-25,-12,121,22,-127, 
  /* [91][0][][] */ -45,-8,-24,-42,19,-15,-30,-97,9,62,-9,-127,-32,-15,2,11, 
  /* [92][0][][] */ -23,21,40,16,0,-127,13,2,1,-24,1,-14,3,-24,19,5, 
  /* [93][0][][] */ 39,-21,127,-12,-51,56,28,-29,-21,25,-71,-19,-22,-2,31,3, 
  /* [94][0][][] */ 28,1,-14,-22,26,-5,-16,-5,-32,-19,15,-57,127,-17,30,-32, 
  /* [95][0][][] */ 127,90,-3,34,-94,-15,-65,-4,-26,-18,90,-44,-44,27,78,-74, 
};
const TfArray<4, int> tensor_dimension7 = { 4, { 96,1,1,16 } };
const TfArray<96, float> quant7_scale = { 96, { 0.00076116982381790876, 0.0010783238103613257, 0.00072694756090641022, 0.00083797215484082699, 0.00091515498934313655, 0.0008659038576297462, 0.00044923697714693844, 0.00088919396512210369, 0.00050739245489239693, 0.0010968419956043363, 0.00049860909348353744, 0.00076354731572791934, 0.00074153131572529674, 0.0033877582754939795, 0.00057361769722774625, 0.00047758189612068236, 0.00033731036819517612, 0.00068577175261452794, 0.0013167423894628882, 0.00069394666934385896, 0.00035114382626488805, 0.00023795175366103649, 0.00039916016976349056, 0.00024058087728917599, 0.00051337777404114604, 0.001256999559700489, 0.0018752046162262559, 0.0009620790951885283, 0.00062995508778840303, 0.0010472716530784965, 0.00056295510148629546, 0.00080322497524321079, 0.00056550133740529418, 0.00066503614652901888, 0.00083872629329562187, 0.00063686509383842349, 0.00044890391291119158, 0.00055979145690798759, 0.00093004730297252536, 0.00099425995722413063, 0.00035585628938861191, 0.001282927580177784, 0.00079314404865726829, 0.00052854651585221291, 0.0011757197789847851, 0.00053076865151524544, 0.00065255316440016031, 0.00073996477294713259, 0.00075430556898936629, 0.00061465409817174077, 0.00065960187930613756, 0.00046295690117403865, 0.0014924472197890282, 0.0006098082521930337, 0.00088358804350718856, 0.00091522024013102055, 0.0011955080553889275, 0.00067976565333083272, 0.0010348382638767362, 0.00046708181616850197, 0.0022183738183230162, 0.0011972934007644653, 0.00056916032917797565, 0.0012270935112610459, 0.0014304108917713165, 0.00068488618126139045, 0.000261116394540295, 0.00056487391702830791, 0.0012933387188240886, 0.0010419603204354644, 0.00065345456823706627, 0.00066064036218449473, 0.002301397267729044, 0.00087270810035988688, 0.00071640004171058536, 0.0005209451774135232, 0.00078512891195714474, 0.00027274794410914183, 0.00029827686375938356, 0.00047569378511980176, 0.00038320376188494265, 0.00046175337047316134, 0.00051757786422967911, 0.00043597252806648612, 0.00032411448773927987, 0.0008156484691426158, 0.0013447686797007918, 0.00050105084665119648, 0.00031796161783859134, 0.0013303227024152875, 0.00076205853838473558, 0.00068050035042688251, 0.00084544497076421976, 0.0014030397869646549, 0.0010151987662538886, 0.00052562198834493756, } };
const TfLiteAffineQuantization quant7 = { (TfLiteFloatArray*)&quant7_scale, (TfLiteIntArray*)&g0::quant6_zero, 0 };
const MODEL_SECTION(EI_MODEL_SECTION) ALIGN(16) int32_t tensor_data8[16] = { -9259, 15765, -18750, -2627, -10239, 10692, 28519, -54800, -998, 16608, 24505, 15813, -10986, 13737, -6537, 11327, };
const TfArray<1, int> tensor_dimension8 = { 1, { 16 } };
const TfArray<16, float> quant8_scale = { 16, { 0.00083204056136310101, 0.0004199622489977628, 0.00023412810696754605, 0.00021855202794540673, 0.00042018006206490099, 0.00040160748176276684, 0.00037386515759862959, 0.00028025562642142177, 0.00033609845559112728, 0.00027494545793160796, 0.00074113521259278059, 0.00058853079099208117, 0.00045187299838289618, 0.00023736114962957799, 0.00052844645688310266, 0.00055810925550758839, } };
const TfArray<16, int> quant8_zero = { 16, { 0,0,0,0,0,0,0,0,0,0,0,0,0,0,0,0 } };
const TfLiteAffineQuantization quant8 = { (TfLiteFloatArray*)&quant8_scale, (TfLiteIntArray*)&quant8_zero, 0 };
const MODEL_SECTION(EI_MODEL_SECTION) ALIGN(16) int8_t tensor_data9[16*1*1*96] = { 
  /* [0][0][][] */ -17,-13,3,-31,17,-7,-38,0,16,4,-11,5,-7,-8,-26,5,-2,4,-3,-2,10,-32,5,5,4,11,4,127,33,-36,41,-10,-1,6,6,2,-9,13,-39,-4,-11,6,0,37,6,14,14,5,24,1,-7,9,17,-19,-11,81,4,8,-28,-35,-5,24,0,-25,-40,-65,-21,37,7,10,17,-15,-7,-33,-4,-23,-26,18,2,6,-9,-26,25,22,-3,-10,-9,-92,3,-14,6,-4,46,-32,-35,-12, 
  /* [1][0][][] */ 36,-68,-74,-57,127,-14,62,38,-21,-90,-56,-17,3,-5,-60,38,-69,6,46,42,18,39,-17,-55,15,-9,-11,-69,34,-19,-60,37,-21,31,4,1,9,-8,1,20,-30,35,-40,-21,-39,90,10,8,26,-75,13,-40,-20,40,51,12,-55,-21,-34,-34,24,-19,0,-43,-85,104,-26,-21,-4,-26,-20,16,53,-105,-28,2,33,-51,44,7,7,-26,26,1,-52,33,-17,27,29,-39,-2,9,26,11,33,97, 
  /* [2][0][][] */ 2,57,-86,-11,89,80,31,72,-4,-102,-3,-16,-4,-1,27,23,8,-18,-47,65,20,-2,73,18,50,25,-4,-39,34,-10,46,-56,31,38,-25,34,-127,-84,26,30,2,-46,17,-20,21,-34,1,66,-29,19,-27,-10,87,-6,-9,53,33,9,32,4,24,22,32,-27,18,-1,-35,1,-43,2,-15,-39,-42,-78,11,61,71,47,31,-7,29,-42,8,-11,-40,29,15,40,-23,26,6,-22,0,-36,-64,-1, 
  /* [3][0][][] */ 66,19,95,-8,53,-35,18,-11,-20,-67,17,-44,-3,37,39,105,23,-5,29,6,124,-9,40,17,59,-19,-17,19,34,46,-6,91,-106,24,30,-6,-21,-23,-7,42,-82,-31,74,14,24,43,-51,-95,-62,-36,-59,43,-3,-127,2,23,-112,74,61,37,14,100,-14,-55,34,71,-9,-51,28,-26,0,-69,48,-38,57,-18,14,-2,50,42,-35,-74,20,-13,-30,15,24,42,26,14,18,39,35,103,45,-36, 
  /* [4][0][][] */ 24,-6,20,-10,127,37,-5,-19,-38,-45,-37,-31,-47,21,-7,50,26,-77,-35,82,-18,6,29,-18,1,-7,13,-39,7,-13,54,-34,85,10,-21,11,40,16,8,9,-26,-7,-28,-24,-4,-49,-12,7,35,8,-20,10,-5,-35,11,-23,27,-12,-32,27,-2,54,60,23,39,44,-20,-3,-43,2,42,60,16,-66,-41,-25,30,34,79,-31,-7,-36,3,-6,-66,8,37,47,-49,31,1,-41,9,11,24,-21, 
  /* [5][0][][] */ 10,-13,-15,12,28,-16,40,-27,-23,-41,-17,6,-2,26,-1,15,-9,-5,15,-5,30,12,-41,66,12,-6,12,-103,-6,29,12,30,-5,3,5,-62,26,22,-8,10,-10,-9,25,-21,-6,-2,4,-23,-21,-20,9,-17,-4,-29,-7,-52,-3,14,-22,16,69,14,0,34,-5,57,2,77,7,94,13,30,11,12,-7,71,-27,-11,18,11,-10,-11,-1,19,-12,15,-13,127,-3,27,-4,-13,3,15,-61,17, 
  /* [6][0][][] */ 25,-78,19,-36,-33,12,33,22,5,-2,-16,-70,-36,-2,-30,30,15,-8,0,-6,-42,36,13,7,-23,-1,-16,-11,-18,13,39,-5,59,9,62,-2,-7,-12,18,-94,-20,90,3,-34,15,-22,-20,18,-13,35,-26,67,-21,-60,-10,-9,3,-61,-8,1,-14,58,38,-78,29,-30,5,-22,-6,1,127,4,-41,9,-32,25,-83,-9,17,6,30,42,21,-2,-23,-2,39,22,11,7,48,-36,-14,-6,-32,-16, 
  /* [7][0][][] */ 4,127,45,11,122,49,43,-33,-29,-27,40,-13,-26,29,19,27,13,-38,5,30,36,-32,38,11,-5,15,12,9,22,-17,8,22,46,-5,-45,8,22,10,-7,84,-48,26,20,22,-12,-25,29,-21,-29,-30,31,9,24,-41,-34,49,46,2,-19,-2,-13,-44,-4,-5,-55,73,-34,-88,-8,-38,-6,65,-16,-29,18,15,57,58,41,-14,-45,-35,-11,-7,-15,55,-8,-2,-30,31,-36,-36,-51,-16,23,-4, 
  /* [8][0][][] */ -4,0,50,19,-127,-28,45,-17,29,83,63,9,-15,13,24,7,-44,11,12,-1,-39,-3,-111,66,16,-35,58,-15,5,13,1,51,74,-20,-2,-9,-25,-15,4,36,13,-31,43,8,-43,-4,46,3,-107,15,26,23,-61,-39,-34,43,15,-52,-85,-20,15,-32,-29,-7,7,75,-3,-55,20,-16,-45,-24,38,51,54,-12,-20,-40,-15,29,-88,9,-17,-6,24,18,62,40,29,-38,47,48,4,-3,41,17, 
  /* [9][0][][] */ 9,-108,-18,21,96,84,-34,-28,28,-36,96,92,-20,14,92,-104,17,-32,-3,17,-56,-48,33,-11,-26,7,-3,27,-29,9,7,-12,19,17,-109,31,-3,14,-17,62,31,-75,-22,65,0,-14,-75,-33,30,27,-14,-84,64,28,-12,-50,-6,87,-15,3,20,-55,-29,127,-87,-15,-3,-21,-1,31,-59,-79,45,-3,1,32,63,-64,25,5,-11,-22,6,29,-3,-69,23,-7,4,-39,-55,35,-63,-8,-8,-45, 
  /* [10][0][][] */ -46,-19,-32,-44,-25,-6,63,-23,33,20,28,34,25,-10,-7,-3,-7,22,-27,-19,-4,30,16,19,-9,-10,10,-127,26,-43,53,-33,1,19,-5,-10,-5,30,2,-6,9,-33,24,-49,10,-5,27,14,-5,36,-27,-17,-34,-23,-6,-56,18,13,-5,-40,24,10,-1,8,-34,87,-15,-30,14,-28,-1,-18,-28,-8,21,55,-7,38,-20,18,-21,0,7,25,9,-16,-8,114,-2,-3,13,13,21,-38,41,-34, 
  /* [11][0][][] */ -85,20,-1,-1,18,-61,-17,-1,-48,-6,-2,17,28,21,-26,-6,51,3,-63,-52,21,-7,-7,-2,74,7,60,-2,-19,30,-40,19,-9,22,-10,-10,-11,4,23,8,-18,-7,3,4,79,13,76,15,46,41,-5,34,10,-64,23,-5,-67,-18,-34,-45,-6,-12,0,20,-3,-25,30,1,22,9,-6,29,-24,12,27,5,-18,80,-127,68,-39,-5,-66,-66,123,19,38,-10,13,45,-31,-56,-24,43,-27,-2, 
  /* [12][0][][] */ -6,-8,-36,1,65,20,2,-14,-13,19,23,-5,5,-15,31,-9,-32,-11,12,-15,-8,-20,-36,47,-20,41,-22,96,-18,33,-35,3,-14,26,8,29,-18,-17,16,8,-3,-14,-5,7,-14,-1,20,22,-4,-5,-1,-29,-18,11,-12,-13,-9,-10,13,22,-14,-20,-2,46,39,-77,12,55,-29,-127,-6,51,3,8,11,81,5,-13,-3,1,-3,21,-40,2,10,-15,1,-46,-7,13,8,-2,-37,35,-12,23, 
  /* [13][0][][] */ -83,63,-3,-5,-63,7,-15,15,-39,-26,46,26,85,12,-25,-2,-11,30,-42,-10,18,-13,56,-57,64,40,-5,-2,11,-32,-35,-102,-97,-33,3,8,-4,28,37,-16,-34,83,0,16,42,6,-12,6,65,-11,32,75,69,-68,84,-14,-24,52,43,2,11,32,-13,22,3,-25,6,7,15,20,23,-127,10,-25,-82,9,53,42,-49,-46,86,-20,1,-25,39,-34,89,3,-24,-5,-20,24,40,-42,-18,7, 
  /* [14][0][][] */ -30,18,-12,-47,30,0,-10,29,-80,0,21,14,-24,-61,-71,-26,-79,-12,68,9,32,-5,16,-97,-41,17,-48,-17,12,-17,-4,-33,-66,-27,23,16,-14,-1,10,0,7,80,-69,-11,-49,23,9,13,127,-23,28,-10,27,53,-102,19,-23,30,-101,13,8,30,38,27,6,27,1,4,-50,22,60,35,32,-5,-27,20,51,-69,-29,-94,15,-33,12,39,31,-69,-39,9,-36,22,33,45,16,35,21,-12, 
  /* [15][0][][] */ -39,-76,-9,-38,4,10,-6,-64,-24,18,-5,-30,39,-13,45,-16,-90,-4,-19,12,-17,6,-67,-42,-9,0,-4,19,-20,-16,62,-90,-7,28,21,7,-7,23,-96,3,29,-70,0,28,-25,-46,53,31,50,18,-10,-127,-4,45,-2,38,35,-10,-19,41,6,-1,41,-4,3,-8,-12,-8,-24,21,7,36,-39,5,0,-34,-31,-10,5,9,-4,39,-8,70,-15,-41,-33,-32,-43,58,29,80,-38,-3,1,-13, 
};
const TfArray<4, int> tensor_dimension9 = { 4, { 16,1,1,96 } };
const TfArray<16, float> quant9_scale = { 16, { 0.035361722111701965, 0.017848394811153412, 0.0099504441022872925, 0.009288460947573185, 0.01785765215754509, 0.017068317160010338, 0.01588926836848259, 0.011910864152014256, 0.014284184202551842, 0.01168518140912056, 0.031498245894908905, 0.025012558326125145, 0.019204601645469666, 0.010087848640978336, 0.022458974272012711, 0.02371964231133461, } };
const TfLiteAffineQuantization quant9 = { (TfLiteFloatArray*)&quant9_scale, (TfLiteIntArray*)&g0::quant8_zero, 0 };
const MODEL_SECTION(EI_MODEL_SECTION) ALIGN(16) int32_t tensor_data10[96] = { 17979, 62177, -1507, -405, 14418, -4780, 243, -231, 5609, 13938, -4249, -38, 661, 4724, 5018, -8919, -4134, -418, -331, 14287, -10583, 16358, -2222, 9426, 21180, -25, -5651, 15888, 14088, -19786, 1671, 21647, 23737, -9385, 2026, -47, -515, -37, 4299, -7253, -5340, -1001, -9164, -21, 29741, -1395, 13291, -1095, -14752, 2062, -6, 203, -2760, 16462, -3906, 14241, 19178, 54, 35369, -55, -8750, -590, 1477, 12, -1246, 13052, -1165, -7945, -3515, 4133, -47, -3937, 1235, 88, -1963, -5803, -123, -1909, 45862, -6827, -5748, -11677, -138, 243, 62000, -12526, -10503, -27740, -7443, 9521, -2031, 34487, 18, -1973, -2780, 1013, };
const TfArray<96, float> quant10_scale = { 96, { 0.00012861435243394226, 9.1600784799084067e-05, 0.00011618582357186824, 0.00021177485177759081, 0.00023442000383511186, 0.00016951819998212159, 5.258480814518407e-05, 9.5233939646277577e-05, 0.00023981949198059738, 0.00017297020531259477, 0.00027457540272735059, 0.0001189701069961302, 0.00025706496671773493, 0.00020135987142566592, 0.00038932182360440493, 0.00016791479720268399, 0.00020963611314073205, 0.00017283226770814508, 0.00018916391127277166, 7.5983080023434013e-05, 8.1674297689460218e-05, 4.6219553041737527e-05, 0.00014187765191309154, 8.1001227954402566e-05, 7.2918694058898836e-05, 9.8482742032501847e-05, 0.00017891920288093388, 0.00019629775488283485, 7.3158546001650393e-05, 0.00046557773021049798, 0.00036964513128623366, 0.00023946516739670187, 0.00012476403207983822, 0.00017812878650147468, 0.00022197925136424601, 0.00045440177200362086, 0.00038747323560528457, 0.00024214426230173558, 0.00024343511904589832, 0.00011687578080454841, 0.00021724628459196538, 0.00019964946841355413, 0.00033721193904057145, 9.3225018645171076e-05, 0.00035551763721741736, 9.6620315161999315e-05, 0.00011709138925652951, 0.00027945733745582402, 0.00069286191137507558, 0.0001015233137877658, 0.00042206357466056943, 0.00015647606051061302, 0.00019052498100791126, 0.00017006992129608989, 0.00022316008107736707, 0.00012373359641060233, 0.00014325405936688185, 0.00040229185833595693, 4.3363907025195658e-05, 0.00017590606876183301, 0.000332051538862288, 0.00032726468634791672, 0.00011742155766114593, 0.00015628893743269145, 0.00013165484415367246, 0.00014108506729826331, 0.00027358424267731607, 0.00027491594664752483, 0.00018768275913316756, 0.00010397613368695602, 0.00020186531764920801, 0.00010148926958208904, 0.00028550179558806121, 0.0001405992079526186, 0.00039145539631135762, 0.00032237480627372861, 0.00012368307216092944, 8.3424034528434277e-05, 5.6504053645767272e-05, 0.00018356404325459152, 0.00024923853925429285, 0.0002305898378835991, 0.00017283967463299632, 0.00029052843456156552, 5.7030996686080471e-05, 0.00012283968681003898, 7.6647076639346778e-05, 0.00048147302004508674, 0.0002434292109683156, 0.00012354842328932136, 0.00037890559178777039, 3.1971536373021081e-05, 0.00015581837214995176, 0.00010907027899520472, 0.00035972485784441233, 0.00027086542104370892, } };
const TfLiteAffineQuantization quant10 = { (TfLiteFloatArray*)&quant10_scale, (TfLiteIntArray*)&g0::quant6_zero, 0 };
const MODEL_SECTION(EI_MODEL_SECTION) ALIGN(16) int8_t tensor_data11[1*3*3*96] = { 
  /* [0][0][][] */ -46,-72,-10,127,22,71,75,-59,-15,-18,-15,-5,-30,0,37,1,-9,-44,27,22,18,-127,127,5,-84,7,50,-28,-125,-127,39,24,13,27,61,-18,-30,-10,30,-8,-13,27,-108,70,25,-68,38,46,-18,52,-24,19,3,-6,16,48,-90,-50,-60,-19,-11,0,10,38,68,-25,74,13,-8,16,19,127,23,23,26,-1,-11,17,127,-7,-14,15,-28,20,126,20,-76,-16,-1,-31,-15,-39,2,-25,-15,25, 127,-127,75,106,-43,127,39,-118,70,5,-17,127,127,-98,-13,15,11,127,127,-112,127,-76,81,67,-127,-116,-66,-34,-55,46,-59,-21,-89,53,-127,-84,-43,-14,-53,61,-1,127,127,81,-51,-113,-112,-50,-15,-127,43,84,66,-31,45,83,-46,42,-79,-113,-44,-41,-61,67,73,-61,26,30,-81,32,-17,91,117,127,13,19,1,58,-33,52,65,127,127,-23,-9,75,-112,127,-121,-100,5,-127,-90,-127,-38,105, -74,-12,30,-83,15,-25,64,-8,80,-35,-27,18,-19,-5,-9,-12,-9,-16,7,-4,-23,-103,29,-1,-122,98,8,-55,116,50,-15,9,1,14,14,-29,-9,34,19,12,25,12,-118,64,18,-18,37,13,-14,11,-16,5,-10,1,-3,20,-65,6,-32,52,2,41,33,-1,-7,-39,-31,23,10,2,-4,36,10,-25,-5,4,-12,-6,-84,2,-21,-24,-18,3,-110,9,-33,-22,-51,24,-25,-32,29,-26,-14,1, 
  /* [0][1][][] */ -64,-75,74,-36,-48,93,18,127,-52,-21,0,-119,26,-114,78,31,-3,-60,-17,89,53,-70,47,49,-95,-12,127,-23,-24,64,122,-103,-127,90,-86,-56,-36,32,-29,94,-49,-26,-5,46,-48,127,-23,65,16,95,20,-2,14,-54,27,32,127,122,-71,-85,127,-33,-36,127,72,-38,-15,-1,127,39,127,96,-40,102,-5,12,14,13,-31,9,-43,124,-80,110,1,34,-55,30,79,-127,-32,-7,127,-69,-23,0, 67,125,57,-114,127,83,90,38,-127,127,127,-39,-65,-127,-127,127,127,-64,-123,-50,103,95,-123,127,-107,-91,-43,127,-127,109,-127,-127,-89,127,107,127,127,-127,-106,127,-65,-96,111,-127,-127,-36,-127,-127,127,-112,86,43,127,127,127,-127,100,-127,-127,127,20,-80,-127,-99,-127,127,-127,127,-126,-127,-107,-83,-127,-79,127,127,-127,127,-78,127,127,30,-42,-127,60,127,93,45,127,12,127,2,-67,35,127,-127, -53,-13,-50,38,-56,-98,35,-27,19,-34,-28,93,1,92,14,10,-4,64,-6,127,2,-86,-42,7,-73,105,-71,-20,-69,-16,17,-62,-70,38,6,-17,-29,45,-68,41,127,-4,-38,29,-40,-59,16,45,9,118,-11,6,-37,-72,4,19,95,2,1,22,-35,127,92,-52,-43,12,38,-11,-78,122,-18,-86,-1,-54,-17,-21,27,16,77,-36,-70,-42,56,15,-48,-17,73,23,15,62,-43,20,-43,96,-27,-5, 
  /* [0][2][][] */ -67,1,-3,-21,13,-45,66,24,55,-28,-36,-2,18,18,-26,1,-7,65,7,1,-54,-82,2,-9,-27,-54,35,-69,89,39,25,26,17,-9,-11,-46,-7,35,-3,-1,-15,-6,-68,105,4,31,12,36,-15,-31,11,-20,21,-1,9,15,-70,24,-15,14,15,0,-21,-4,-1,-47,-47,15,-33,13,26,29,13,-19,27,4,17,5,-78,-13,-9,-8,17,15,-127,7,12,-43,-59,-50,-27,-49,9,57,-19,-8, 121,33,-127,-35,-72,-25,39,30,-65,-29,-19,-108,-77,111,-13,36,2,-51,-9,-126,92,-51,-39,0,-108,127,-51,20,-35,-21,-9,-4,-63,16,27,5,-23,-28,127,52,11,-14,68,-34,-38,76,-67,-43,-33,-5,-127,-127,-50,-26,1,39,-65,-7,12,39,-7,-18,9,-47,-54,33,64,-22,115,108,-24,-70,11,-57,3,4,99,4,51,22,12,-97,-50,2,3,8,127,40,-61,38,-19,-110,41,79,-10,26, -53,13,-18,26,16,-68,-127,2,-11,-8,-16,4,15,-26,19,-2,-8,-16,5,17,-49,-72,14,1,17,-95,21,3,-48,-39,-7,16,43,-20,-6,-25,-35,3,42,-41,23,-2,-48,-33,3,65,23,16,-9,-4,10,-9,17,6,-4,-5,-61,-13,3,-38,-11,10,84,-10,34,-2,-1,28,1,5,-4,20,-17,16,0,14,35,0,74,-12,3,-8,-8,-17,74,0,43,-39,59,39,-17,-54,-8,2,-14,-16, 
};
const TfArray<4, int> tensor_dimension11 = { 4, { 1,3,3,96 } };
const TfArray<96, float> quant11_scale = { 96, { 0.0054661096073687077, 0.0038930333685129881, 0.0049378974363207817, 0.0090004308149218559, 0.0099628502503037453, 0.0072045233100652695, 0.002234854269772768, 0.004047442227602005, 0.010192328132688999, 0.0073512336239218712, 0.011669454164803028, 0.0050562294200062752, 0.010925261303782463, 0.0085577946156263351, 0.016546176746487617, 0.0071363784372806549, 0.0089095346629619598, 0.0073453714139759541, 0.008039466105401516, 0.0032292809337377548, 0.0034711575135588646, 0.0019643309060484171, 0.006029800046235323, 0.0034425521735101938, 0.0030990445520728827, 0.0041855163872241974, 0.0076040662825107574, 0.0083426544442772865, 0.0031092381104826927, 0.019787052646279335, 0.015709917992353439, 0.010177269577980042, 0.0053024711087346077, 0.0075704734772443771, 0.0094341179355978966, 0.019312074407935143, 0.016467612236738205, 0.010291131213307381, 0.010345992632210255, 0.0049672205932438374, 0.0092329671606421471, 0.0084851020947098732, 0.014331506565213203, 0.003962063230574131, 0.015109498985111713, 0.0041063632816076279, 0.004976383876055479, 0.011876937001943588, 0.02944662980735302, 0.0043147406540811062, 0.017937701195478439, 0.0066502322442829609, 0.0080973114818334579, 0.0072279716841876507, 0.0094843031838536263, 0.0052586775273084641, 0.0060882973484694958, 0.017097404226660728, 0.0018429660703986883, 0.0074760075658559799, 0.014112190343439579, 0.01390874944627285, 0.0049904161132872105, 0.0066422796808183193, 0.0055953306145966053, 0.005996115505695343, 0.011627329513430595, 0.011683926917612553, 0.0079765170812606812, 0.0044189854525029659, 0.0085792755708098412, 0.004313293844461441, 0.012133825570344925, 0.0059754662215709686, 0.016636854037642479, 0.013700928539037704, 0.0052565303631126881, 0.0035455215256661177, 0.002401422243565321, 0.0078014717437326908, 0.010592637583613396, 0.0098000681027770042, 0.0073456862010061741, 0.012347457930445671, 0.0024238172918558121, 0.0052206865511834621, 0.0032575007062405348, 0.020462602376937866, 0.010345741175115108, 0.0052508078515529633, 0.016103487461805344, 0.0013587902067229152, 0.0066222809255123138, 0.0046354867517948151, 0.015288306400179863, 0.011511780321598053, } };
const TfLiteAffineQuantization quant11 = { (TfLiteFloatArray*)&quant11_scale, (TfLiteIntArray*)&g0::quant6_zero, 3 };
const MODEL_SECTION(EI_MODEL_SECTION) ALIGN(16) int32_t tensor_data12[96] = { 3133, 12652, 23149, 53285, 28529, -5899, -3055, 9492, 59539, -7972, 19158, 8052, 14965, 21063, 61100, 2632, 4483, 17261, 24873, 11256, -395, 687, 21831, -1843, 8357, 93, 23768, 13232, 12101, 66971, 94437, 31196, 13469, -1131, 17831, 4611, 2436, 5979, 38591, -1653, 22134, 16772, 72386, -6115, 45919, 15331, 11158, 27004, 108066, 19988, -960, 15117, -6449, -364, -4299, 12234, -1049, 27676, 10682, 15271, 9548, 29470, 12227, 9839, 19698, 15562, 10042, -11304, 13264, -5560, 9142, 17882, 34759, 10773, -8510, -9202, 12354, 565, 4427, -2079, 27252, 23262, 10431, 27329, 5940, 507, 19154, 120386, 18640, 19943, 11038, -366, 11914, 15155, 8832, 21119, };
const TfArray<96, float> quant12_scale = { 96, { 0.00012711579620372504, 0.00011642598838079721, 8.1553196650929749e-05, 4.336355414125137e-05, 0.00010423923959024251, 0.0001717245759209618, 0.00026406496181152761, 0.0001720699219731614, 3.9430105971405283e-05, 0.00017364494851790369, 0.00013973331078886986, 0.00010966824629576877, 8.4875078755430877e-05, 0.00010980256774928421, 3.9051727071637288e-05, 0.00021734974870923907, 0.00010122005187440664, 7.2175906097982079e-05, 8.9204331743530929e-05, 0.00010561532690189779, 0.00017655713600106537, 0.00032621977152302861, 9.2151487478986382e-05, 0.00035066800774075091, 0.00031282939016819, 0.00013453693827614188, 9.4083952717483044e-05, 0.00010604329145280644, 0.00013499561464414001, 5.2516112191369757e-05, 3.0087529012234882e-05, 7.8885663242544979e-05, 0.00012336413783486933, 0.00019193779735360295, 0.00011234660632908344, 0.00012821835116483271, 0.00021084937907289714, 0.00024616706650704145, 7.0336951466742903e-05, 0.00033826526487246156, 8.4754021372646093e-05, 9.3842594651505351e-05, 3.7241574318613857e-05, 0.00017269660020247102, 7.0707326813135296e-05, 0.00010062507499242201, 0.00015595520380884409, 9.9218123068567365e-05, 3.8120942917885259e-05, 0.00010501145152375102, 0.00012866870383732021, 0.00011358684423612431, 0.00016448574024252594, 0.00012993942073080689, 0.00023935515491757542, 8.998121484182775e-05, 0.00010418076999485493, 6.7573535488918424e-05, 0.00019084246014244854, 9.6654475782997906e-05, 0.00016801949823275208, 4.7583140258211643e-05, 0.00012054027320118621, 0.00010017216845881194, 0.0001255251991096884, 0.00012387651077006012, 0.00012880972644779831, 0.0001180349790956825, 0.00012709970178548247, 0.00012786143634002656, 0.00012117232836317271, 8.847536810208112e-05, 5.9917820180999115e-05, 9.5321505796164274e-05, 0.00018202363571617752, 0.00014775226009078324, 0.0001343991607427597, 0.00018519445438869298, 0.00017047903384082019, 0.00019088826957158744, 7.4610477895475924e-05, 7.1623850089963526e-05, 8.4142498963046819e-05, 7.071509025990963e-05, 0.00019446526130195707, 0.00016773409151937813, 0.00012213343870826066, 3.199181446689181e-05, 7.5952542829327285e-05, 0.00011351498687872663, 0.00011485309369163588, 0.00020203519670758396, 0.00012284117110539228, 0.00010564774856902659, 0.00012792345660272986, 8.1165017036255449e-05, } };
const TfLiteAffineQuantization quant12 = { (TfLiteFloatArray*)&quant12_scale, (TfLiteIntArray*)&g0::quant6_zero, 0 };
const MODEL_SECTION(EI_MODEL_SECTION) ALIGN(16) int8_t tensor_data13[96*1*1*16] = { 
  /* [0][0][][] */ 1,64,-24,78,25,31,12,-15,32,35,-58,103,5,-127,45,-126, 
  /* [1][0][][] */ 21,50,-10,-22,26,-28,127,-107,2,87,-13,-18,5,-48,33,13, 
  /* [2][0][][] */ -127,33,-35,-23,1,-6,54,92,-31,54,108,-19,-66,14,32,-50, 
  /* [3][0][][] */ -70,63,49,63,-52,56,73,127,10,68,-120,7,41,-74,-86,-60, 
  /* [4][0][][] */ 13,-2,35,65,-18,64,-3,45,6,-15,-2,-4,22,-4,-127,-23, 
  /* [5][0][][] */ -7,-30,57,-21,8,-24,-6,28,-69,102,-30,-127,-14,23,-56,-26, 
  /* [6][0][][] */ 15,0,34,-11,41,59,-68,-71,-8,-2,47,-14,127,-24,-17,-36, 
  /* [7][0][][] */ 21,13,127,-14,-23,-39,7,-9,-79,27,-81,-47,10,-8,34,-14, 
  /* [8][0][][] */ 22,31,80,69,-57,85,22,48,43,6,11,-94,-39,6,-127,-78, 
  /* [9][0][][] */ 32,-118,56,46,13,-34,2,22,127,1,79,11,-27,8,-109,-31, 
  /* [10][0][][] */ -39,-96,6,-19,-102,10,-15,58,98,127,45,-27,-28,65,81,-7, 
  /* [11][0][][] */ 44,-17,7,-95,16,-28,-110,-127,-55,43,-9,-31,31,-25,42,-65, 
  /* [12][0][][] */ -16,6,10,-40,-35,-39,-97,-18,-47,-75,-24,16,25,127,90,46, 
  /* [13][0][][] */ -36,-100,-68,29,-10,-68,0,-25,51,12,-12,-14,22,17,127,31, 
  /* [14][0][][] */ 1,-59,57,29,24,32,11,127,20,55,12,-40,13,43,-60,119, 
  /* [15][0][][] */ 21,-33,2,60,16,-3,95,0,4,-127,14,-35,0,-21,-7,-36, 
  /* [16][0][][] */ 39,-84,-45,33,12,7,40,-70,127,68,94,4,7,105,63,115, 
  /* [17][0][][] */ -72,-71,56,127,113,54,7,-21,118,-53,-12,-46,19,57,-119,35, 
  /* [18][0][][] */ -10,14,1,19,-102,0,-11,41,-66,-23,-20,-47,5,-127,68,-2, 
  /* [19][0][][] */ 56,-66,49,-73,96,33,-110,96,100,-85,81,49,-14,69,49,127, 
  /* [20][0][][] */ 42,-20,67,-63,-9,10,-34,49,-14,-51,94,-14,10,15,-38,127, 
  /* [21][0][][] */ -64,-16,0,-37,15,13,-81,-50,-22,62,2,12,-127,-13,34,-8, 
  /* [22][0][][] */ 26,-25,25,-27,16,-65,7,-15,-127,27,-14,-42,-17,-15,76,-21, 
  /* [23][0][][] */ 14,6,17,-7,6,10,-10,2,-7,-6,42,-14,127,-6,0,-38, 
  /* [24][0][][] */ -13,1,2,-65,-27,-20,46,9,-53,-2,-8,-127,4,-101,41,12, 
  /* [25][0][][] */ -111,13,-48,-6,59,-26,-75,-127,-31,55,-30,-56,-76,-86,23,-45, 
  /* [26][0][][] */ 37,-9,53,-110,127,-30,-1,-1,123,-51,41,-32,-11,104,2,80, 
  /* [27][0][][] */ 100,-29,20,-29,-33,-54,-3,-21,-27,19,-127,14,16,-14,0,40, 
  /* [28][0][][] */ -118,-18,-127,-80,50,-12,73,-55,-2,53,-64,15,42,-11,-41,47, 
  /* [29][0][][] */ -65,-32,-3,127,-10,19,9,-40,-9,-1,-79,48,23,-74,27,-38, 
  /* [30][0][][] */ 57,-14,127,-21,56,44,-31,76,-37,-80,59,-36,-8,25,-70,72, 
  /* [31][0][][] */ 14,-87,2,-49,-2,-62,17,-41,-15,42,101,17,-21,93,65,127, 
  /* [32][0][][] */ -14,72,-33,38,-127,24,-72,-41,-55,-33,-1,49,10,51,34,60, 
  /* [33][0][][] */ 28,-16,29,127,20,1,22,-45,-101,50,62,-21,5,3,5,102, 
  /* [34][0][][] */ 35,-2,11,-4,77,-44,-127,-22,-45,88,-41,5,-30,7,6,10, 
  /* [35][0][][] */ 71,15,-12,1,19,-127,-27,-8,-26,0,-85,-3,76,20,-6,18, 
  /* [36][0][][] */ 22,-1,-127,7,45,13,-32,23,-32,-19,1,-11,1,12,-18,9, 
  /* [37][0][][] */ 1,0,127,-7,-58,24,22,-60,-13,27,-49,18,21,-10,15,-2, 
  /* [38][0][][] */ -127,35,-3,28,27,79,11,-22,14,-19,126,-28,-31,13,-13,-22, 
  /* [39][0][][] */ -17,-5,16,34,32,-12,-127,36,12,29,-1,-35,-1,-21,0,-5, 
  /* [40][0][][] */ 3,77,-22,127,10,46,57,34,-68,-35,-26,58,20,45,-65,-28, 
  /* [41][0][][] */ 15,13,-41,-23,-51,-2,127,91,-50,84,-30,-3,3,64,39,-9, 
  /* [42][0][][] */ 39,-51,-27,-16,31,38,-64,70,88,-97,127,46,-18,45,-62,39, 
  /* [43][0][][] */ -74,3,27,-40,34,20,-75,-78,-26,43,2,-14,-127,-14,35,-6, 
  /* [44][0][][] */ 7,5,-14,-6,-4,-20,-3,-48,127,-3,19,44,18,75,2,44, 
  /* [45][0][][] */ -66,-86,12,-97,33,-11,-14,50,17,-76,-20,-29,29,109,-40,127, 
  /* [46][0][][] */ -43,17,-28,91,-81,-26,3,-74,-127,42,-45,-13,-1,31,2,-37, 
  /* [47][0][][] */ -29,-17,-102,127,3,59,-2,-22,11,52,55,59,-23,-16,24,-20, 
  /* [48][0][][] */ -11,1,24,-127,21,-41,-15,-7,-52,12,25,-18,-12,58,102,46, 
  /* [49][0][][] */ -22,23,51,119,-14,41,-57,-14,21,-51,-92,-44,-30,-47,-95,-127, 
  /* [50][0][][] */ 1,68,25,-114,62,17,-21,57,127,-19,-35,9,3,-41,16,-28, 
  /* [51][0][][] */ 11,-29,22,-6,46,-10,-53,-127,14,-72,-5,-1,-14,-12,-11,-12, 
  /* [52][0][][] */ 23,18,-9,34,37,-15,-66,103,-82,127,-43,-39,81,104,7,-38, 
  /* [53][0][][] */ -9,98,5,-96,-39,-8,30,-24,-64,-50,-43,51,17,-127,-88,-9, 
  /* [54][0][][] */ -3,10,17,32,47,-23,7,-34,-3,29,-13,-20,-8,127,-43,-13, 
  /* [55][0][][] */ -126,127,93,-22,49,5,-19,-4,-50,29,108,-15,-14,-29,119,-13, 
  /* [56][0][][] */ 61,2,22,-119,90,-1,-15,36,57,-53,50,127,-25,14,95,57, 
  /* [57][0][][] */ -22,-3,17,67,-21,17,41,127,-6,2,6,-27,4,52,7,18, 
  /* [58][0][][] */ 20,127,-2,-122,6,34,-11,20,106,-7,-3,81,5,-88,43,65, 
  /* [59][0][][] */ 28,49,48,-114,-45,-3,28,-8,7,23,29,-68,-14,-127,-69,19, 
  /* [60][0][][] */ 51,-11,113,-42,-38,127,30,-37,-11,36,-49,-11,28,10,31,-7, 
  /* [61][0][][] */ -26,28,-47,-48,-58,9,110,127,-19,73,-9,12,10,77,23,-33, 
  /* [62][0][][] */ -13,-3,-8,-1,-80,32,-62,10,-26,-24,-6,-53,15,-127,80,1, 
  /* [63][0][][] */ 12,-30,-2,-89,41,-2,-122,-127,-59,96,-18,9,57,1,24,-41, 
  /* [64][0][][] */ -26,-3,34,48,73,-2,-36,-127,29,-112,1,-42,-5,-23,-6,5, 
  /* [65][0][][] */ -127,18,29,-63,16,77,46,-49,-77,32,50,-11,-2,16,-17,-30, 
  /* [66][0][][] */ 65,8,86,17,-53,17,-25,50,-51,-6,64,-87,-19,51,-127,-18, 
  /* [67][0][][] */ 40,-33,-39,65,59,-48,-82,-109,44,-127,-73,-35,-98,17,-83,24, 
  /* [68][0][][] */ 13,-28,-71,53,-54,-91,4,-55,-36,-14,40,-65,-27,56,127,-13, 
  /* [69][0][][] */ -28,36,-72,56,-11,-127,27,82,25,6,52,-14,127,32,-16,4, 
  /* [70][0][][] */ 11,9,-37,-38,-44,9,127,94,-22,52,-18,10,13,42,16,-4, 
  /* [71][0][][] */ 10,-9,-27,-51,24,3,10,55,-29,-44,-10,-2,12,-127,74,10, 
  /* [72][0][][] */ 34,33,-11,34,31,-40,-46,-127,17,60,-52,18,47,60,42,51, 
  /* [73][0][][] */ -46,-127,-30,-67,-86,-18,36,-31,-21,11,-33,-35,20,-50,64,-6, 
  /* [74][0][][] */ -30,29,62,102,-6,5,-127,98,24,-34,-38,-40,-2,-9,-15,-3, 
  /* [75][0][][] */ -56,33,-37,14,-28,93,89,127,-2,57,3,-34,-118,76,14,21, 
  /* [76][0][][] */ 12,-21,-39,-24,43,-71,-127,-113,-20,-17,12,-9,41,-7,74,-32, 
  /* [77][0][][] */ -33,9,-33,-23,-44,-4,-13,-42,127,7,-64,9,-7,46,25,-81, 
  /* [78][0][][] */ -106,-127,-11,93,72,69,-30,35,1,-69,-110,86,52,-25,101,62, 
  /* [79][0][][] */ 38,-10,32,-54,127,9,47,16,79,24,3,31,-3,-25,11,-39, 
  /* [80][0][][] */ -13,-33,62,-110,-25,-47,3,6,-82,-41,-12,-52,2,127,-38,15, 
  /* [81][0][][] */ 19,-8,42,39,8,48,-17,-17,6,-9,-3,-39,-5,32,-127,17, 
  /* [82][0][][] */ -83,-24,28,-127,-10,-39,-4,-48,-35,-35,-49,-120,-18,-120,-101,32, 
  /* [83][0][][] */ -2,9,-26,-66,-46,12,-5,39,-74,0,9,-76,21,-127,10,49, 
  /* [84][0][][] */ 127,35,21,48,-55,3,-57,23,-8,-22,106,6,-71,20,84,-77, 
  /* [85][0][][] */ -9,-21,18,-31,44,-6,-43,116,-85,-116,-69,-36,-21,78,82,-127, 
  /* [86][0][][] */ 19,-2,8,0,-53,65,-40,45,-92,-49,29,-22,-14,-127,-15,27, 
  /* [87][0][][] */ 127,-44,19,-3,-38,-33,0,-1,8,15,-110,12,38,-8,-1,36, 
  /* [88][0][][] */ 42,85,-24,4,-11,-22,-21,-19,108,23,36,41,-27,-38,127,-122, 
  /* [89][0][][] */ 41,67,-86,-19,-38,-23,27,-67,48,50,24,-33,-39,-1,-21,-127, 
  /* [90][0][][] */ -12,-30,1,-79,-72,13,127,-66,91,-81,17,-82,42,-21,-37,-15, 
  /* [91][0][][] */ 10,6,-20,-98,-43,-2,30,-39,-53,23,62,48,11,-20,35,127, 
  /* [92][0][][] */ 16,3,7,12,57,-15,-70,-127,44,-61,-5,-29,-35,-16,-5,-22, 
  /* [93][0][][] */ 69,5,37,-127,-40,-5,-25,49,45,-75,82,-21,-37,116,-24,25, 
  /* [94][0][][] */ -104,44,-95,14,64,-127,-16,4,-6,-48,90,-28,0,-4,-16,-6, 
  /* [95][0][][] */ -25,60,22,-127,-6,-3,-30,2,20,-32,-58,-74,-1,30,-64,-7, 
};
const TfArray<96, float> quant13_scale = { 96, { 0.00072408298728987575, 0.00066319119650870562, 0.00046454713447019458, 0.00024700950598344207, 0.00059377244906499982, 0.00097818556241691113, 0.0015041792066767812, 0.00098015274852514267, 0.00022460361651610583, 0.00098912452813237906, 0.00079595547867938876, 0.00062469742260873318, 0.00048346939729526639, 0.00062546256231144071, 0.00022244828869588673, 0.0012380778789520264, 0.00057657441357150674, 0.00041113179759122431, 0.00050812988774850965, 0.00060161098372191191, 0.0010057130130007863, 0.0018582283519208431, 0.00052491761744022369, 0.0019974915776401758, 0.0017819534987211227, 0.00076635560253635049, 0.00053592544281855226, 0.00060404877876862884, 0.0007689683698117733, 0.00029914473998360336, 0.00017138599650934339, 0.00044935219921171665, 0.00070271262666210532, 0.0010933250887319446, 0.00063995399978011847, 0.00073036341927945614, 0.0012010501231998205, 0.0014022283721715212, 0.00040065663051791489, 0.0019268424948677421, 0.000482779840240255, 0.00053455057786777616, 0.00021213720901869237, 0.0009837225079536438, 0.00040276639629155397, 0.0005731852725148201, 0.0008883593836799264, 0.00056517095072194934, 0.00021714629838243127, 0.00059817114379256964, 0.00073292868910357356, 0.00064701872179284692, 0.00093695137184113264, 0.00074016704456880689, 0.0013634260976687074, 0.00051255524158477783, 0.00059343938482925296, 0.00038491556188091636, 0.00108708580955863, 0.00055056775454431772, 0.0009570805705152452, 0.00027104531181976199, 0.00068662717239931226, 0.0005706053925678134, 0.00071502249920740724, 0.00070563121698796749, 0.00073373201303184032, 0.00067235640017315745, 0.00072399131022393703, 0.00072833028389140964, 0.00069022749084979296, 0.00050397752784192562, 0.0003413067024666816, 0.00054297485621646047, 0.0010368515504524112, 0.00084163335850462317, 0.00076557084685191512, 0.0010549133876338601, 0.0009710906888358295, 0.0010873466962948442, 0.00042499971459619701, 0.00040798715781420469, 0.00047929646098054945, 0.00040281060501001775, 0.0011077221715822816, 0.00095545477233827114, 0.00069570221239700913, 0.0001822332851588726, 0.00043264444684609771, 0.00064660940552130342, 0.00065423158230260015, 0.0011508424067869782, 0.00069973361678421497, 0.00060179567662999034, 0.00072868360439315438, 0.00046233597095124424, } };
const TfLiteAffineQuantization quant13 = { (TfLiteFloatArray*)&quant13_scale, (TfLiteIntArray*)&g0::quant6_zero, 0 };
const MODEL_SECTION(EI_MODEL_SECTION) ALIGN(16) int32_t tensor_data14[16] = { -3750, -4892, -12263, 31990, 26609, 4389, -5635, -4415, 25077, 2681, 27947, 23574, -9901, 12380, 35897, -29978, };
const TfArray<16, float> quant14_scale = { 16, { 0.00045405692071653903, 0.00027020182460546494, 0.0002758199698291719, 0.00023739268362987787, 0.00037680185050703585, 0.00033166285720653832, 0.00031917431624606252, 0.00038255687104538083, 0.00020324307843111455, 0.00026958686066791415, 0.00037397036794573069, 0.00068068999098613858, 0.00046921666944399476, 0.00048434099880978465, 0.00046092137927189469, 0.00029898778302595019, } };
const TfLiteAffineQuantization quant14 = { (TfLiteFloatArray*)&quant14_scale, (TfLiteIntArray*)&g0::quant8_zero, 0 };
const MODEL_SECTION(EI_MODEL_SECTION) ALIGN(16) int8_t tensor_data15[16*1*1*96] = { 
  /* [0][0][][] */ -1,18,-10,19,45,69,-36,-29,45,3,13,7,-10,13,24,68,1,-7,-7,-8,98,-56,7,-16,-24,-36,-41,-95,-6,-5,46,48,118,-5,4,-2,10,-20,-20,9,-33,14,19,-31,4,-30,-14,25,-12,19,1,-8,-34,-14,7,-4,38,23,-21,-25,-59,30,-10,-10,13,9,56,2,12,4,1,-27,-62,-4,-2,2,-6,-88,7,-18,39,-18,-58,-43,28,-12,5,25,-7,4,20,-32,23,20,-12,127, 
  /* [1][0][][] */ 77,-98,45,82,-12,-67,-16,-44,-25,-91,-7,25,10,-62,-36,-55,-85,-6,24,22,-37,-109,-39,27,127,-65,-74,17,-28,94,-16,52,10,13,-43,24,-22,-11,50,-27,0,-78,76,-34,-56,16,56,-4,35,22,0,-72,64,-79,40,-22,22,28,-17,-107,37,-68,19,-52,4,-84,35,46,40,51,-40,0,-97,39,-22,67,38,96,18,-23,42,6,-76,35,-84,63,-2,63,-43,11,20,9,6,-46,40,2, 
  /* [2][0][][] */ 28,17,13,-29,6,-1,-10,37,64,-16,14,70,0,10,48,5,-11,-14,14,-8,-20,-65,5,-59,-1,-15,-28,25,-7,20,127,-60,18,-73,-25,62,17,126,-44,-23,1,-19,-5,35,-45,-50,-62,25,28,30,-33,-34,26,-1,-3,-30,-27,2,-4,28,2,5,78,93,7,-80,19,-73,-10,-17,-14,9,-15,11,-21,15,15,58,6,20,12,91,28,-14,-11,5,11,5,25,4,-3,-52,-44,4,-7,65, 
  /* [3][0][][] */ -12,-19,-33,34,26,-21,-1,-23,-17,14,2,5,8,-15,43,-8,40,-40,21,8,-17,-10,-11,-1,-17,9,8,-6,23,-45,61,-19,15,-14,-14,49,-12,-8,-13,7,10,-66,21,-29,-5,5,1,1,-127,44,-14,22,-118,-59,-27,-37,29,10,-14,53,-8,19,9,16,-18,-91,-36,27,55,15,-2,26,-39,12,-9,-49,-50,-54,26,-38,11,-20,17,68,39,55,35,13,32,-8,-9,6,-32,-1,-16,-26, 
  /* [4][0][][] */ 0,-29,16,-72,-1,-14,-49,7,-22,-46,-30,-11,8,73,10,7,52,-12,7,2,-7,31,53,4,-4,-4,17,11,4,-9,-6,-7,-36,10,2,17,35,-23,3,-11,13,8,-102,-30,32,-8,-11,-15,5,82,-14,-19,-22,-18,8,-8,-3,-31,26,33,11,7,5,-7,39,-116,24,-22,-48,15,-16,-2,-13,17,-19,31,-23,66,55,5,12,5,127,-39,42,-20,-12,-5,67,8,-3,20,-35,26,-5,-44, 
  /* [5][0][][] */ -9,0,-3,-7,-8,-5,-2,113,57,-18,-14,-32,-11,24,34,31,-17,-10,2,-41,-49,-13,-5,-54,13,7,23,75,72,8,70,47,-50,17,-1,-6,-54,-55,-31,-16,-38,-16,-12,-5,64,14,7,12,13,8,-20,8,-28,-17,3,-5,-24,-17,-9,32,-53,22,-22,-43,9,13,-23,6,-6,14,4,-2,33,9,7,-5,-9,26,10,127,-6,-43,22,32,4,-3,22,-33,-3,-25,19,-127,-36,-20,-10,-118, 
  /* [6][0][][] */ -26,-5,-11,-54,-4,-19,-16,13,-4,21,-15,-3,36,-64,5,-13,-5,-66,29,11,3,3,-19,21,75,-9,-1,0,19,-6,13,-9,-21,1,-23,3,21,4,20,35,-4,-28,-49,-20,-5,-23,26,-127,23,34,18,11,11,3,-8,-43,35,-7,-6,7,19,18,2,7,38,64,24,-21,-22,-11,15,-24,17,6,44,-6,-29,27,4,3,-16,-6,49,-31,-1,43,20,-20,23,6,-37,-7,-22,10,-7,13, 
  /* [7][0][][] */ 16,10,35,-24,-6,2,-5,-25,-4,-13,-16,-14,-9,-92,26,5,-5,-34,-16,-9,10,-16,-36,-5,-21,-11,1,-16,9,8,7,1,-13,4,-8,-18,2,-11,-29,25,6,-13,-21,30,-5,14,-16,75,-2,25,-15,-26,-26,5,-2,-50,41,0,-2,1,-5,5,-11,-7,-21,39,14,-27,-13,-7,5,40,-8,-10,-13,7,51,7,-3,-21,5,-35,35,0,-34,127,-3,0,-34,-21,-2,19,-23,-2,-5,5, 
  /* [8][0][][] */ -67,43,-58,1,45,-7,-17,27,14,74,-44,9,15,35,73,-15,-5,32,-78,18,18,27,-33,-1,-41,-25,21,11,50,-93,0,-5,26,7,12,-10,-18,31,-41,46,8,14,4,-127,-39,-8,44,-27,-51,20,2,70,-107,76,19,-5,7,-20,-25,-20,1,-39,7,20,-30,34,31,-24,-10,2,28,80,-22,33,40,37,-8,-93,-1,-37,-15,-14,22,6,-64,5,13,-45,2,36,-27,5,35,-14,-18,-13, 
  /* [9][0][][] */ 27,-56,-34,-35,16,23,-21,21,28,-17,-1,13,-43,-24,6,20,-5,3,38,-21,-23,6,-25,-44,33,11,29,-12,-31,-35,-18,-2,-9,13,21,33,6,41,-35,18,12,12,-21,-86,8,-11,27,-127,-33,0,-2,25,-15,6,-14,6,-41,25,-12,15,12,11,12,28,24,110,35,44,10,-10,13,-22,-12,2,-34,8,69,-3,13,11,-11,3,12,-40,1,25,-3,0,-47,32,-35,0,6,9,6,-17, 
  /* [10][0][][] */ 27,49,-21,32,68,-114,-13,-28,3,50,30,-5,-13,23,15,-78,18,38,-23,38,-87,-11,-12,-31,-65,-28,-55,49,14,8,2,37,-12,-16,32,-13,77,-22,-12,-7,-15,64,47,-21,-57,-11,-40,12,-20,-20,-39,-4,-13,-12,6,-13,12,31,-23,-17,-1,7,-15,24,9,44,57,27,25,-1,28,54,-52,-24,-58,-11,1,27,-18,10,28,-6,-67,-31,62,-51,97,-11,-21,12,25,-16,80,38,-14,-127, 
  /* [11][0][][] */ 43,40,-31,23,-4,15,53,4,-4,-16,-24,-12,0,1,35,2,-2,-9,-98,-6,1,13,4,-8,-43,-22,-10,2,3,18,2,-6,-5,6,7,20,8,12,-7,20,4,27,59,-96,29,-38,2,-5,-127,11,11,-47,24,18,-10,12,-14,-13,7,3,14,-17,-9,7,-51,52,-18,11,16,-2,25,10,-51,-27,12,29,-4,-36,-51,6,10,-3,89,45,7,-10,-12,-9,3,23,-17,-3,-2,8,-22,13, 
  /* [12][0][][] */ -30,-5,8,-2,-25,33,13,0,127,5,-12,3,0,7,-36,-39,25,27,11,75,54,29,-10,-21,0,10,17,-26,-104,5,31,-38,5,-6,-7,-19,18,-1,40,-10,-47,-17,-5,11,1,28,6,-4,18,5,-42,10,8,-2,9,-6,69,-27,11,15,18,-13,12,-11,-4,30,-39,2,-2,7,-15,-33,16,12,-68,5,27,-5,11,-60,-13,7,39,39,-16,-14,-27,-25,8,16,-4,46,-14,-23,13,8, 
  /* [13][0][][] */ 29,-11,-27,28,30,-2,8,1,-7,2,9,-3,11,-10,12,-12,16,-69,-34,11,-10,-19,9,4,10,9,0,-4,-11,-32,-6,15,0,5,7,43,16,-1,7,16,-1,8,22,36,17,17,-11,-127,20,-3,5,7,-15,-4,18,6,-11,15,22,12,6,17,-6,4,-11,-20,-18,-53,5,14,-10,-31,-13,36,-8,20,-24,1,14,-2,26,-11,-14,17,13,26,9,18,-4,-1,22,-6,2,13,-9,-7, 
  /* [14][0][][] */ -116,-51,27,54,32,-28,-30,15,-16,9,-11,13,64,9,-127,0,78,-15,-17,31,-12,-7,38,21,-108,8,32,-13,-40,-78,-32,1,-4,3,25,-70,30,35,1,24,20,34,-1,-33,18,121,72,58,-115,50,12,35,-51,-4,36,-3,9,10,65,59,35,49,11,48,0,-13,-44,46,8,80,-55,-85,-82,1,-4,46,-9,42,88,0,58,16,36,28,45,12,49,33,26,46,72,-5,1,28,23,-27, 
  /* [15][0][][] */ 92,-27,37,7,-2,76,36,-22,-16,53,7,5,-89,-9,-12,35,11,43,51,-15,10,24,-89,70,24,9,48,-3,26,43,-65,-79,13,-52,45,1,42,-36,-56,-106,-6,35,5,37,-1,54,-26,-38,106,-44,-53,27,45,-125,68,-110,4,-64,19,23,-127,0,19,23,82,-20,-55,46,-31,78,-28,20,45,27,20,6,24,-55,69,-15,-11,-2,42,83,-16,-1,0,-54,3,-5,72,0,-67,61,25,-12, 
};
const TfArray<16, float> quant15_scale = { 16, { 0.019297419115900993, 0.011483577080070972, 0.011722348630428314, 0.010089188814163208, 0.016014078631997108, 0.014095671474933624, 0.013564907945692539, 0.016258666291832924, 0.0086378306150436401, 0.011457441374659538, 0.015893740579485893, 0.028929324820637703, 0.019941708073019981, 0.020584492012858391, 0.019589157775044441, 0.012706981040537357, } };
const TfLiteAffineQuantization quant15 = { (TfLiteFloatArray*)&quant15_scale, (TfLiteIntArray*)&g0::quant8_zero, 0 };
const MODEL_SECTION(EI_MODEL_SECTION) ALIGN(16) int32_t tensor_data16[96] = { 10014, -9249, 2912, 52882, -1376, -4350, -11466, 2226, -2798, 1177, 2847, -1306, 1379, -6798, 5418, -5797, -1353, 16950, 25962, 2130, 1709, -2562, 14, 98, 18152, -1076, -838, -3573, -5979, -7581, 5595, -9184, -105, -424, -57, 12804, 1446, -3640, 19330, 503, -12, 1971, -9905, -7644, -7191, 67173, 280, 13082, 28041, -12422, 15, 8231, 7443, -361, -5496, 2309, -12332, 1900, 2070, -6707, -1580, -946, -12851, -437, 1460, 16090, 28867, 26229, -12265, 390, -7947, -882, 52708, 8682, 12, 905, 18659, 32884, -297, -7681, -1557, -7879, 1063, -3372, 702, 514, 1287, -360, 1427, -2521, 4, 52, -32, -411, 470, 49745, };
const TfArray<96, float> quant16_scale = { 96, { 0.00017984550504479557, 0.00011454062769189477, 0.00027120838058181107, 4.0734805224929005e-05, 0.00017331021081190556, 0.00015897463890723884, 0.00029219742282293737, 8.4418468759395182e-05, 0.00013891047274228185, 0.00040461338357999921, 0.00016010964463930577, 0.00034556331229396164, 9.2692956968676299e-05, 0.00039594410918653011, 0.00018631038255989552, 0.00014225000631995499, 0.00010226072481600568, 0.00029906741110607982, 5.7706685765879229e-05, 0.00030897060059942305, 5.1520019042072818e-05, 0.00018686574185267091, 0.0001251028006663546, 0.00037761926068924367, 0.00019018766761291772, 0.00024033896625041962, 0.00015179195906966925, 0.00017153391672763973, 0.00012892491940874606, 0.0001074464016710408, 0.00014618302520830184, 0.00017545356240589172, 0.00012618233449757099, 0.00015721659292466938, 0.00020969889010302722, 0.00017950541223399341, 0.00038846745155751705, 0.0001218621910084039, 4.4102776882937178e-05, 0.0001388530945405364, 0.0002410636079730466, 0.00033260829513892531, 0.00033881596755236387, 0.00014548386388923973, 0.00019723242439795285, 4.6659344661748037e-05, 0.00020796543685719371, 0.0002666562213562429, 9.1579444415401667e-05, 0.00018787379667628556, 0.0002104354789480567, 0.00015956658171489835, 0.00023250578669831157, 0.00028086267411708832, 0.00027639360632747412, 0.00043887112406082451, 0.00031281550764106214, 0.00021168342209421098, 0.00011257369624217972, 7.9982048191595823e-05, 0.00030003517167642713, 0.00013716299145016819, 0.00027393718482926488, 0.00013567741552833468, 0.00019620593229774386, 0.0001785357017070055, 8.2508166087791324e-05, 6.7577799200080335e-05, 0.00033023231662809849, 0.00024016412498895079, 0.00021609166287817061, 0.00010693464719224721, 0.00010902486246777698, 0.00013016549928579479, 0.00016186077846214175, 0.00026655159308575094, 0.00053622940322384238, 5.2512121328618377e-05, 0.00026317313313484192, 0.00024638892500661314, 0.000160660405526869, 0.00026963712298311293, 0.00010805375495692715, 0.00015990877000149339, 0.00012876614346168935, 9.3410417321138084e-05, 0.00013556856720242649, 0.0001948048738995567, 0.00019041133054997772, 0.00010917513282038271, 0.00020139533444307745, 0.00012145864457124844, 0.00014553632354363799, 0.00042991893133148551, 0.002824034309014678, 7.6945005275774747e-05, } };
const TfLiteAffineQuantization quant16 = { (TfLiteFloatArray*)&quant16_scale, (TfLiteIntArray*)&g0::quant6_zero, 0 };
const MODEL_SECTION(EI_MODEL_SECTION) ALIGN(16) int8_t tensor_data17[1*3*3*96] = { 
  /* [0][0][][] */ -17,6,-20,104,-17,23,-62,-53,17,-6,99,-9,3,-8,-4,54,5,16,-34,3,74,3,32,-33,2,17,44,49,21,13,24,48,-7,27,10,-15,5,48,-59,-26,20,9,27,18,-85,-56,25,-5,-11,-20,-8,-6,49,5,-9,2,-3,-36,28,-31,27,-2,127,27,-13,-11,11,-53,66,35,2,-7,79,-32,69,4,17,-127,29,64,1,15,127,-14,38,29,-29,-19,35,-7,-14,81,1,20,-2,12, -48,12,-8,10,52,-8,-10,-127,38,14,-127,-5,-17,-12,4,92,18,-30,-14,-16,76,-96,127,26,-61,-31,-105,-16,27,36,-49,18,119,12,-14,-1,-24,127,-63,-127,9,-19,-30,14,46,-127,127,-44,-76,50,49,7,39,-64,31,56,36,42,-101,84,127,34,4,-20,43,-38,-96,-1,37,-30,-18,46,-48,-48,106,-4,-30,-60,-33,64,-67,62,-16,9,-11,48,54,-41,-28,54,-13,72,-127,-31,23,-127, 0,-4,-23,-74,8,18,38,22,-3,-2,5,63,0,-12,-10,6,-12,17,-16,17,6,25,24,-32,1,-31,10,12,-7,5,46,-79,44,17,9,-22,12,3,-30,-21,7,3,-16,8,23,-32,21,1,7,-8,6,-5,5,6,-6,8,-7,44,7,-2,11,-18,3,-17,-26,-17,30,-50,-106,-7,40,-18,-127,-22,-12,17,10,-11,6,11,-13,23,-35,-3,-40,21,26,36,-24,-17,25,-12,19,7,-2,-45, 
  /* [0][1][][] */ -40,59,-18,37,-85,-16,-11,-44,26,96,-44,-21,-31,-24,-7,63,127,-24,-90,-13,58,-127,-29,16,-35,-47,-127,-6,37,36,-49,27,-127,-75,-57,3,65,-3,-51,46,-19,86,1,-3,35,-51,-12,-32,127,43,-4,21,45,9,-36,-17,31,9,-124,127,-36,-89,21,127,-60,-36,-85,126,-36,127,-18,53,-35,-54,37,8,-35,-70,127,48,127,35,6,-1,127,29,-96,47,-38,-35,-102,40,98,103,29,-58, 127,127,127,127,-46,-127,127,23,127,-127,16,-127,-107,127,127,127,-16,-127,-61,-127,127,23,-68,127,127,127,-55,-127,127,127,-127,127,-9,-127,-124,127,-127,-44,96,109,-127,-127,127,127,127,-117,-107,127,-13,127,-127,-127,-127,127,127,-127,127,-127,-43,40,-105,-28,-70,-68,127,127,-71,127,127,-107,-127,127,-42,127,-127,-127,-127,124,-75,127,-43,127,79,127,-38,-127,-25,-107,-127,-127,-23,-127,-22,-127,-127,116, -24,66,-38,2,127,70,-21,49,5,23,-13,-5,-26,-30,-13,-7,-104,-22,-127,39,30,77,-12,-115,-34,-41,124,72,10,35,72,8,126,-47,127,-3,55,5,-93,14,36,23,-23,1,-23,-52,-12,-42,81,15,-11,40,-6,-4,-75,-14,24,20,127,-89,2,127,0,-36,-111,-28,-75,100,15,-17,112,24,-17,-56,12,47,-28,-7,-43,-3,-46,8,46,24,-90,35,127,-47,32,-22,127,-10,-113,35,34,19, 
  /* [0][2][][] */ -4,-40,-21,-61,-4,14,40,31,-2,10,-20,52,24,-34,-7,7,41,2,13,21,-10,30,-17,-25,2,-24,9,3,-10,-7,49,-75,-38,67,-28,-25,31,-35,-63,17,9,9,-34,20,13,-77,-12,-1,-9,6,17,-8,8,1,-22,6,-1,44,-49,34,-5,-12,5,17,-6,-10,22,-53,-56,11,-21,-12,-119,-32,0,18,15,-12,56,17,22,22,-40,15,12,25,-21,10,5,25,23,-6,20,40,-7,-30, -28,-10,-27,23,-45,74,-25,66,6,-6,54,-12,127,-7,-18,-17,-1,-40,-56,24,-23,79,-45,-111,-47,-47,101,70,13,44,54,-2,-123,63,-15,-23,-28,-27,-127,-4,45,-14,-15,37,-26,-44,-18,-48,-60,28,68,25,-11,-80,29,52,17,26,75,-55,20,-57,-8,0,19,-26,-127,-55,-11,-27,-63,23,36,-46,-30,-7,-44,24,-56,1,49,35,19,11,5,63,-92,127,16,127,-30,-19,115,-21,46,83, -9,-34,-26,29,12,65,-43,13,4,-7,0,14,12,-51,-10,-13,-44,-6,18,20,-24,5,-21,4,-4,19,-3,52,-2,-6,34,29,17,42,19,-23,-6,-26,-30,8,11,-11,22,9,-74,-32,-13,4,-2,-16,-1,-4,-9,9,-17,-5,-1,-50,13,-29,-21,49,9,-29,-10,-2,36,-55,45,7,52,-21,31,-55,-18,22,11,11,-6,22,-30,32,89,-14,-17,55,38,-9,109,12,2,-19,10,-22,-6,-50, 
};
const TfArray<96, float> quant17_scale = { 96, { 0.007643433753401041, 0.0048679765313863754, 0.01152635645121336, 0.0017312292475253344, 0.0073656835593283176, 0.0067564221099019051, 0.01241839025169611, 0.0035877847112715244, 0.0059036952443420887, 0.017196068540215492, 0.0068046594969928265, 0.014686441048979759, 0.0039394507184624672, 0.016827624291181564, 0.0079181911423802376, 0.0060456250794231892, 0.0043460805900394917, 0.012710364535450935, 0.002452534157782793, 0.013131249696016312, 0.0021896008402109146, 0.0079417936503887177, 0.0053168688900768757, 0.016048818826675415, 0.0080829756334424019, 0.010214406065642834, 0.0064511583186686039, 0.0072901910170912743, 0.0054793087765574455, 0.0045664720237255096, 0.0062127783894538879, 0.0074567762203514576, 0.0053627490997314453, 0.0066817053593695164, 0.0089122029021382332, 0.0076289796270430088, 0.016509866341948509, 0.0051791430450975895, 0.0018743679393082857, 0.0059012561105191708, 0.010245203040540218, 0.014135852456092834, 0.014399678446352482, 0.0061830640770494938, 0.0083823781460523605, 0.0019830220844596624, 0.0088385306298732758, 0.011332889087498188, 0.0038921262603253126, 0.0079846363514661789, 0.0089435074478387833, 0.0067815794609487057, 0.0098814954981207848, 0.011936663649976254, 0.011746727861464024, 0.018652021884918213, 0.013294658623635769, 0.0089965453371405602, 0.0047843819484114647, 0.0033992370590567589, 0.012751494534313679, 0.0058294269256293774, 0.011642330326139927, 0.0057662897743284702, 0.0083387522026896477, 0.007587767206132412, 0.0035065968986600637, 0.0028720563277602196, 0.014034872874617577, 0.010206975042819977, 0.0091838957741856575, 0.0045447223819792271, 0.0046335565857589245, 0.0055320337414741516, 0.0068790828809142113, 0.011328442953526974, 0.022789748385548592, 0.0022317650727927685, 0.011184858158230782, 0.010471529327332973, 0.0068280668929219246, 0.011459577828645706, 0.0045922845602035522, 0.0067961225286126137, 0.0054725608788430691, 0.0039699426852166653, 0.0057616638951003551, 0.0082792071625590324, 0.0080924816429615021, 0.0046399431303143501, 0.008559301495552063, 0.0051619922742247581, 0.0061852936632931232, 0.018271554261445999, 0.12002145498991013, 0.0032701627351343632, } };
const TfLiteAffineQuantization quant17 = { (TfLiteFloatArray*)&quant17_scale, (TfLiteIntArray*)&g0::quant6_zero, 3 };
const MODEL_SECTION(EI_MODEL_SECTION) ALIGN(16) int32_t tensor_data18[96] = { 36140, 2677, 17230, -1473, 11275, 11543, 32689, 12589, -2799, 37335, 14976, 3163, 13822, 77938, -1051, -4505, 20038, 25967, 3969, -388, -1552, 30455, 9268, 6938, 17434, 11191, 11533, 8779, 120, -39, 13419, 19858, 33011, 3607, 15993, -1186, 39818, 14705, 1465, 10314, 1527, 25699, 25788, 8889, 6296, 23631, 27746, 12855, 9827, 7110, 675, -1463, 36276, 13934, 15856, 32569, -596, 15082, 7092, 8156, 25771, 15224, 5931, 13700, 12394, 9248, 13254, -1670, 35099, 16157, 20989, -2671, -3220, 6835, 3680, 6492, 49260, 28421, 26115, -5172, 12126, -11851, -4502, 1359, 14469, 11212, 13687, 10778, 24759, 8399, 17426, 8124, 30366, 44709, -20002, 29305, };
const TfArray<96, float> quant18_scale = { 96, { 7.1701411798130721e-05, 0.00012675482139457017, 7.881985220592469e-05, 0.00037398326094262302, 0.00014210528752300888, 8.0140634963754565e-05, 9.5539566245861351e-05, 0.00027894086088053882, 0.00016340984439011663, 4.8325269744964316e-05, 9.5430994406342506e-05, 0.00025962048675864935, 0.00019927788525819778, 6.1893777456134558e-05, 0.00010488936095498502, 0.00015407278260681778, 0.00011085790902143344, 9.0057139459531754e-05, 0.00011296752199996263, 0.00029794860165566206, 0.00017678555741440505, 8.1181431596633047e-05, 0.00016287891776300967, 0.000113583606434986, 0.00010135656339116395, 0.00018631474813446403, 0.00012423715088516474, 0.00010175121860811487, 0.00030050458735786378, 0.00019546969269867986, 0.00010699474660214037, 9.4891009212005883e-05, 5.9703350416384637e-05, 0.00030017780954949558, 0.00010460491466801614, 0.00023478643561247736, 5.6825858337106183e-05, 0.00017937034135684371, 0.00031097582541406155, 9.2799316917080432e-05, 0.00032124220160767436, 7.3449220508337021e-05, 8.2678263424895704e-05, 8.3867700595874339e-05, 0.00017846882110461593, 0.00013822506298311055, 0.00010248745093122125, 0.00011334920418448746, 0.00016187601431738585, 0.00012486048217397183, 0.00020183817832730711, 0.00044545487617142498, 7.3817667725961655e-05, 0.00011405229452066123, 0.00014702272892463952, 5.6766559282550588e-05, 0.00018744234694167972, 0.00011516182712512091, 0.00011065527360187843, 0.00019908414105884731, 6.5799984440673143e-05, 9.1824658738914877e-05, 0.00017758035392034799, 0.00020200171275064349, 8.529803017154336e-05, 0.000121472985483706, 0.00014687520160805434, 0.00020344526274129748, 7.6675911259371787e-05, 7.1447633672505617e-05, 9.5166782557498664e-05, 0.00017752550775185227, 0.00011839619401143864, 0.00019168130529578775, 0.00011573304072953761, 0.0001965666888281703, 4.80053095088806e-05, 0.00015830527991056442, 6.4008723711594939e-05, 0.00023559751571156085, 8.9842564193531871e-05, 0.00017532582569401711, 8.5415922512765974e-05, 0.00019367421919014305, 0.00011026852735085413, 0.00014005096454638988, 0.00011868705041706562, 0.00012832241191063076, 6.8147011916153133e-05, 0.00019041371706407517, 8.0179299402516335e-05, 0.00020860882068518549, 6.9417998020071536e-05, 6.1617647588718683e-05, 0.00014647509669885039, 0.00011182424350408837, } };
const TfLiteAffineQuantization quant18 = { (TfLiteFloatArray*)&quant18_scale, (TfLiteIntArray*)&g0::quant6_zero, 0 };
const MODEL_SECTION(EI_MODEL_SECTION) ALIGN(16) int8_t tensor_data19[96*1*1*16] = { 
  /* [0][0][][] */ 47,-23,127,108,70,-28,27,-28,122,-19,-58,-74,33,89,-42,-82, 
  /* [1][0][][] */ 33,80,-9,-4,92,-4,12,29,57,75,-34,127,1,-27,98,-95, 
  /* [2][0][][] */ 22,-58,2,-1,-60,34,-50,88,-78,-91,10,79,-8,-127,82,-93, 
  /* [3][0][][] */ 127,124,-4,38,-125,-15,-66,-27,1,-1,109,-70,-57,96,-47,-36, 
  /* [4][0][][] */ 3,-4,21,10,-26,31,-17,42,-65,-37,-4,-4,-4,-127,25,1, 
  /* [5][0][][] */ 127,-48,-24,2,-10,-121,-27,17,-6,11,-126,-6,23,-7,-5,30, 
  /* [6][0][][] */ -127,-74,-12,98,-53,2,-47,30,-121,-77,-73,-33,28,60,-7,104, 
  /* [7][0][][] */ -17,14,-77,48,40,-127,-24,41,10,-30,14,-5,-1,18,-41,15, 
  /* [8][0][][] */ 33,-50,-10,-11,10,28,-59,-62,-11,12,-70,8,-127,1,0,24, 
  /* [9][0][][] */ 24,-55,60,127,2,23,-5,-75,124,-91,0,-20,-7,50,-70,16, 
  /* [10][0][][] */ -127,-72,-8,-49,119,50,49,75,122,-77,-90,33,100,-118,-121,83, 
  /* [11][0][][] */ 41,-15,-127,18,52,24,-21,41,-13,-34,-11,-7,-2,22,-43,4, 
  /* [12][0][][] */ 108,-57,9,4,-6,-61,-62,-27,41,-3,-127,-19,-52,-14,0,59, 
  /* [13][0][][] */ 37,-75,25,-60,100,10,-102,-127,44,-70,20,13,14,-17,27,-1, 
  /* [14][0][][] */ -56,29,-94,-49,91,-127,62,-61,62,48,-7,-99,23,120,-18,28, 
  /* [15][0][][] */ 27,-7,61,41,50,-43,-38,-13,20,-61,-68,-8,-127,-52,-14,52, 
  /* [16][0][][] */ -127,65,5,12,-3,93,45,76,-20,29,126,8,-4,7,11,-46, 
  /* [17][0][][] */ -9,-8,-43,-33,-34,11,42,78,-24,127,-21,10,-7,81,64,-1, 
  /* [18][0][][] */ 5,127,-52,0,6,3,61,-67,26,118,-54,111,9,-46,35,-98, 
  /* [19][0][][] */ 6,-16,35,17,7,45,-7,16,13,6,-43,-7,-127,1,-11,27, 
  /* [20][0][][] */ 91,-59,-9,-88,-31,23,30,-87,-56,27,-127,-41,30,2,54,10, 
  /* [21][0][][] */ 51,-9,127,48,-22,54,25,0,0,28,-20,-8,-14,82,2,-10, 
  /* [22][0][][] */ 29,6,18,11,-16,0,26,127,13,1,11,32,4,38,22,20, 
  /* [23][0][][] */ -22,18,-81,13,18,-127,10,37,-2,-25,-12,-6,-61,7,-4,37, 
  /* [24][0][][] */ 41,-64,5,-57,57,-2,-26,-10,34,31,60,96,-44,84,127,36, 
  /* [25][0][][] */ -127,-95,-44,5,14,5,10,-35,-58,2,-79,16,20,39,27,53, 
  /* [26][0][][] */ 9,0,46,-4,-8,12,-36,63,-80,-62,-6,15,5,-127,39,-17, 
  /* [27][0][][] */ -97,40,-47,31,35,-25,2,27,37,-32,127,27,-21,6,-13,-27, 
  /* [28][0][][] */ -17,-8,21,34,-1,2,12,83,26,14,-23,-5,-127,-10,-13,37, 
  /* [29][0][][] */ -11,64,40,-37,37,-15,22,-24,-127,32,-29,5,1,34,-88,11, 
  /* [30][0][][] */ -10,-7,-127,-34,23,-63,-1,18,-18,-14,-6,-21,-36,-23,10,18, 
  /* [31][0][][] */ 127,-35,-120,10,40,4,-46,61,-18,-8,-78,-47,11,-8,-84,29, 
  /* [32][0][][] */ -121,51,29,44,17,96,22,36,22,-1,127,6,-32,21,-16,-28, 
  /* [33][0][][] */ 7,-15,127,-21,-65,25,5,-37,-5,8,-7,20,-6,20,37,19, 
  /* [34][0][][] */ -16,-23,-47,-119,26,8,6,-28,-28,-58,-34,-127,-17,-1,48,10, 
  /* [35][0][][] */ 1,-35,40,47,53,-21,18,-19,-117,40,-10,26,-20,127,-43,-40, 
  /* [36][0][][] */ -121,55,-34,-3,-14,47,51,93,-6,34,127,-10,5,16,13,-29, 
  /* [37][0][][] */ -36,12,127,-31,-76,-64,25,-37,18,20,-4,6,-1,-65,66,11, 
  /* [38][0][][] */ 13,-13,-12,27,35,-52,-57,8,-17,-16,69,-11,127,27,-14,7, 
  /* [39][0][][] */ -25,-18,-8,-48,-57,-91,69,127,-40,-11,3,-50,1,54,62,66, 
  /* [40][0][][] */ 68,-6,-15,-12,-8,85,-16,9,15,-3,15,1,127,12,-27,-21, 
  /* [41][0][][] */ -7,-8,-35,-127,28,-5,-27,-72,-9,-48,10,-37,-8,-20,-18,31, 
  /* [42][0][][] */ 47,53,5,104,-117,-5,-96,2,-80,-61,79,-88,-45,127,-44,11, 
  /* [43][0][][] */ 17,114,-28,127,22,23,41,-73,-41,82,-5,26,6,-45,45,35, 
  /* [44][0][][] */ -8,-27,-127,23,53,78,-46,54,-14,-22,37,-23,7,-26,-54,1, 
  /* [45][0][][] */ 2,17,-10,-127,-22,0,50,-8,-11,23,-31,14,6,-91,33,-33, 
  /* [46][0][][] */ 12,28,57,-19,13,12,-48,53,18,-46,-27,12,9,127,50,-15, 
  /* [47][0][][] */ 16,-19,22,-40,-37,17,-64,54,-13,-33,18,32,7,-127,40,12, 
  /* [48][0][][] */ 5,-12,10,-127,-7,-16,-7,7,14,-31,14,-16,7,47,-7,58, 
  /* [49][0][][] */ 34,-36,-3,119,95,15,5,50,-57,18,41,43,-14,41,127,-12, 
  /* [50][0][][] */ -23,-15,73,-24,5,127,-28,-64,40,-27,119,32,98,-6,-5,-62, 
  /* [51][0][][] */ 29,47,13,11,19,4,-44,20,44,1,-1,127,13,32,29,-55, 
  /* [52][0][][] */ -27,60,127,7,19,-32,14,-52,-29,9,12,38,-4,93,-121,-17, 
  /* [53][0][][] */ -7,-18,-45,-127,-46,8,21,-35,-18,43,11,-2,18,-24,49,12, 
  /* [54][0][][] */ 8,12,-27,-50,21,10,-14,10,61,-24,5,-30,-10,127,22,31, 
  /* [55][0][][] */ -8,-33,-41,-10,12,-51,-18,-127,9,-97,-11,-6,-29,-74,-45,-13, 
  /* [56][0][][] */ 40,45,31,60,6,-20,16,127,24,-24,4,-34,77,-12,-50,35, 
  /* [57][0][][] */ 77,-25,127,-27,-64,-52,-3,-33,20,6,-105,28,58,-45,55,23, 
  /* [58][0][][] */ 106,99,16,116,-127,-19,-6,47,-10,22,95,-29,-75,-58,-26,-86, 
  /* [59][0][][] */ 127,-41,-6,0,-24,-16,-6,8,-28,22,-125,-13,15,-5,3,28, 
  /* [60][0][][] */ -127,33,-7,-4,12,15,18,31,10,7,96,0,-35,0,17,-16, 
  /* [61][0][][] */ -110,65,26,28,33,2,-77,-59,127,-99,83,-2,56,-44,-105,-61, 
  /* [62][0][][] */ -22,-40,-127,58,69,105,-5,99,25,-59,41,-15,-79,-3,-105,-11, 
  /* [63][0][][] */ -44,11,127,-40,-59,-58,31,-33,5,16,2,11,-12,-51,74,15, 
  /* [64][0][][] */ 28,64,-12,27,61,-6,91,-127,-19,110,5,-20,-19,-114,-5,49, 
  /* [65][0][][] */ 5,23,7,-22,65,10,1,-127,-23,-57,-29,-48,-9,-40,38,19, 
  /* [66][0][][] */ -127,3,-19,8,-44,19,12,-40,-77,-36,-80,50,56,21,49,80, 
  /* [67][0][][] */ -6,-44,0,127,3,-5,-23,35,59,28,6,-16,-6,-36,-86,-19, 
  /* [68][0][][] */ 10,4,-10,127,-52,-16,1,-30,-48,28,14,-24,-24,-62,-27,-47, 
  /* [69][0][][] */ 87,93,15,118,47,-16,63,-127,14,105,16,56,5,-40,28,-14, 
  /* [70][0][][] */ 13,-40,0,-98,127,-42,47,14,84,-31,70,-58,7,107,78,122, 
  /* [71][0][][] */ 12,47,10,85,45,-127,-40,96,39,-93,16,14,13,-53,-61,33, 
  /* [72][0][][] */ -127,-72,-16,49,16,38,-28,18,-49,-31,-91,38,51,19,3,95, 
  /* [73][0][][] */ -17,-19,-11,61,17,-20,-3,-17,73,11,-2,9,21,127,-58,-42, 
  /* [74][0][][] */ 77,-44,20,-29,-43,-20,39,-17,-43,-9,-120,27,-127,-12,32,49, 
  /* [75][0][][] */ -16,-16,-23,127,-33,9,0,-21,-69,22,-15,-26,0,-51,-18,-33, 
  /* [76][0][][] */ 1,-10,-4,46,37,12,-22,-127,15,-125,6,23,-26,-21,32,-42, 
  /* [77][0][][] */ 127,-33,33,51,-38,-3,-41,-6,44,-8,-41,51,37,13,-51,35, 
  /* [78][0][][] */ -14,-4,49,-2,12,-13,-63,34,45,-29,-41,-33,16,127,33,-30, 
  /* [79][0][][] */ -3,19,47,19,44,60,-50,-53,14,-46,73,-16,127,-23,-29,-43, 
  /* [80][0][][] */ -123,-90,-81,127,10,39,32,-15,-81,34,-99,16,53,-87,-14,47, 
  /* [81][0][][] */ 61,7,-69,37,127,92,-39,-38,-6,-110,-20,-82,-30,-10,-101,24, 
  /* [82][0][][] */ 122,121,-4,37,-127,-20,-75,-23,-70,-2,114,-59,-56,97,-2,-39, 
  /* [83][0][][] */ 127,43,14,-23,8,-13,-10,29,37,16,84,-33,-53,-29,-26,-80, 
  /* [84][0][][] */ 4,-54,-57,-28,43,24,-5,-127,-24,-53,28,11,-25,-5,0,-13, 
  /* [85][0][][] */ -26,-4,-43,-51,-5,-6,75,87,-12,127,-7,-44,28,63,64,-23, 
  /* [86][0][][] */ 103,-26,8,0,0,-31,-4,-22,1,2,-127,6,18,19,-11,23, 
  /* [87][0][][] */ -26,36,16,-37,-10,75,-29,54,-6,-33,31,10,11,-127,13,5, 
  /* [88][0][][] */ 2,-22,-99,-46,61,-10,-36,-127,4,-31,-11,-28,-38,-5,25,-20, 
  /* [89][0][][] */ 27,-19,27,-127,34,5,-52,111,80,-76,31,12,-9,41,29,46, 
  /* [90][0][][] */ -8,14,-42,57,71,-4,107,-92,69,127,-40,42,21,-1,-15,-20, 
  /* [91][0][][] */ 44,-17,-42,-11,0,-127,-14,-6,-5,-5,-47,-5,30,-13,9,26, 
  /* [92][0][][] */ 19,4,127,62,42,16,0,45,-31,26,-65,28,25,89,-1,-7, 
  /* [93][0][][] */ 127,-39,-40,-14,-31,-58,11,39,-28,42,-125,-6,0,15,-2,50, 
  /* [94][0][][] */ 16,-19,44,77,111,-32,-10,57,7,-15,-2,55,-6,127,-23,-77, 
  /* [95][0][][] */ -117,42,40,39,19,42,21,4,10,5,127,-3,-20,33,-16,-29, 
};
const TfArray<96, float> quant19_scale = { 96, { 0.000476930319564417, 0.0008431245805695653, 0.00052427948685362935, 0.0024875935632735491, 0.00094522995641455054, 0.0005330648273229599, 0.00063549261540174484, 0.0018554078415036201, 0.0010869397083297372, 0.00032144118449650705, 0.00063477043295279145, 0.0017268960364162922, 0.001325520221143961, 0.00041169373434968293, 0.00069768389221280813, 0.0010248331818729639, 0.00073738436913117766, 0.00059902563225477934, 0.00075141672277823091, 0.0019818400032818317, 0.0011759098852053285, 0.00053998781368136406, 0.0010834082495421171, 0.00075551465852186084, 0.00067418505204841495, 0.0012392944190651178, 0.00082637794548645616, 0.00067681015934795141, 0.001998841529712081, 0.00130018952768296, 0.00071168807335197926, 0.00063117867102846503, 0.00039712383295409381, 0.0019966678228229284, 0.00069579185219481587, 0.0015617094468325377, 0.00037798384437337518, 0.0011931027984246612, 0.0020684921182692051, 0.00061726552667096257, 0.0021367801818996668, 0.00048855610657483339, 0.00054994417587295175, 0.00055785581935197115, 0.0011871062451973557, 0.00091942021390423179, 0.00068170728627592325, 0.0007539555081166327, 0.0010767373023554683, 0.00083052413538098335, 0.0013425502693280578, 0.002962995320558548, 0.00049100688192993402, 0.00075863220263272524, 0.00097793887834995985, 0.00037758942926302552, 0.0012467947090044618, 0.00076601241016760468, 0.00073603651253506541, 0.0013242315035313368, 0.00043767632450908422, 0.0006107824738137424, 0.0011811965378001332, 0.0013436380540952086, 0.0005673698615282774, 0.00080799177521839738, 0.00097695761360228062, 0.0013532399898394942, 0.00051001878455281258, 0.00047524232650175691, 0.00063301302725449204, 0.0011808316921815276, 0.00078752613626420498, 0.0012749906163662672, 0.00076981185702607036, 0.0013074863236397505, 0.00031931293779052794, 0.0010529861319810152, 0.00042576150735840201, 0.0015671044820919633, 0.0005975983222015202, 0.001166200265288353, 0.00056815403513610363, 0.0012882467126473784, 0.00073346402496099472, 0.0009315654169768095, 0.00078946084249764681, 0.00085355155169963837, 0.00045328785199671984, 0.0012665591202676296, 0.0005333219887688756, 0.0013875860022380948, 0.0004617419617716223, 0.00040985699160955846, 0.00097429624292999506, 0.00074381206650286913, } };
const TfLiteAffineQuantization quant19 = { (TfLiteFloatArray*)&quant19_scale, (TfLiteIntArray*)&g0::quant6_zero, 0 };
const MODEL_SECTION(EI_MODEL_SECTION) ALIGN(16) int32_t tensor_data20[16] = { -38860, 3712, 2487, -8173, 762, -6706, -11441, -43483, 3929, 24678, 33436, -9833, -2307, -22635, 40908, -45758, };
const TfArray<16, float> quant20_scale = { 16, { 0.00072195305256173015, 0.00082332774763926864, 0.0010891727870330215, 0.0010106778936460614, 0.00089887657668441534, 0.0010059247724711895, 0.0011529700132086873, 0.00057891657343134284, 0.00056494254386052489, 0.00062000902835279703, 0.00088711816351860762, 0.00059614935889840126, 0.0009451294899918139, 0.0012642334913834929, 0.0005729657132178545, 0.0006310030585154891, } };
const TfLiteAffineQuantization quant20 = { (TfLiteFloatArray*)&quant20_scale, (TfLiteIntArray*)&g0::quant8_zero, 0 };
const MODEL_SECTION(EI_MODEL_SECTION) ALIGN(16) int8_t tensor_data21[16*1*1*48] = { 
  /* [0][0][][] */ -16,-2,-23,9,24,-2,2,105,-51,16,42,-6,17,-16,-13,14,14,-13,-8,-4,65,-7,21,127,-16,87,-4,-14,26,-16,25,-25,-17,52,19,-48,15,48,18,-13,-108,-26,20,44,36,27,-125,-50, 
  /* [1][0][][] */ -38,-12,21,14,-32,11,1,57,-56,-35,6,-44,-22,-17,-1,-3,-25,119,-10,18,9,9,-28,-16,26,-43,18,24,-26,-86,-38,20,-21,-5,32,-3,-3,-42,2,17,-19,-31,127,12,10,-1,23,-12, 
  /* [2][0][][] */ -21,-7,-13,-36,-2,-65,5,-21,1,13,16,26,15,15,-13,8,-4,-20,-25,-13,-4,-1,-1,-127,-13,74,-15,4,-1,-20,-2,-6,-6,53,11,-1,22,11,26,1,-40,3,-19,-6,-1,-10,15,8, 
  /* [3][0][][] */ -7,33,2,-30,-1,0,2,-4,-19,-3,1,38,-127,6,-6,-2,1,5,-18,-2,-30,8,6,16,-7,-11,3,24,-9,18,4,16,4,1,17,19,-10,26,41,4,11,6,23,-29,8,-5,4,19, 
  /* [4][0][][] */ 36,-32,9,11,20,28,23,-24,-30,3,-12,-19,1,12,2,16,21,-8,-79,3,-4,11,14,72,1,-27,6,48,9,-74,19,7,13,-35,32,-127,11,36,-2,17,-19,18,8,-23,-10,-19,9,6, 
  /* [5][0][][] */ 30,1,-20,58,0,-7,7,24,1,-4,40,8,3,52,2,1,-24,21,28,3,10,4,2,-25,1,-51,1,-21,-4,-10,3,6,66,-127,3,31,-14,-12,15,4,-91,57,20,-4,-6,-2,-99,-8, 
  /* [6][0][][] */ 24,-3,5,6,-12,-5,3,-13,-4,6,-2,5,-16,8,4,5,1,-11,127,8,6,9,15,-34,5,3,25,-12,-11,-4,-3,7,0,-11,30,-36,0,-44,70,13,1,-7,-7,6,-10,2,7,-11, 
  /* [7][0][][] */ -45,-14,-10,35,-8,78,-5,45,1,29,-7,127,77,-4,-8,-4,-6,-24,-7,-17,-29,-6,-19,67,0,-37,-51,-30,-11,-13,-13,-11,4,0,-22,4,9,-59,96,-3,23,28,-62,-59,16,-9,4,3, 
  /* [8][0][][] */ -48,-49,-2,3,-5,2,-1,32,-3,-69,3,41,51,5,8,6,-13,61,-31,5,-51,22,-6,-12,0,1,4,44,-9,116,-11,21,-4,3,-19,-127,-114,69,33,27,20,-4,109,-23,9,30,20,32, 
  /* [9][0][][] */ -24,5,-4,31,20,-34,-5,-1,59,-41,9,57,-56,5,14,1,-7,19,-36,-21,51,8,-13,-16,2,10,48,-25,10,11,10,-2,-4,19,75,-103,-9,-127,-94,7,-29,25,55,8,4,9,-16,-42, 
  /* [10][0][][] */ -22,-7,-34,-127,43,89,9,-12,-2,34,24,10,48,-48,-33,21,34,-43,53,-34,31,-24,38,51,-49,-109,7,-33,48,33,43,-45,-28,-82,25,-6,17,-43,8,-34,-35,-63,-13,11,14,14,17,-35, 
  /* [11][0][][] */ -2,52,-6,63,36,-66,-81,-17,2,62,-17,2,-9,54,-2,-79,20,43,5,-8,-56,-106,12,2,11,-40,18,-18,54,-38,24,-85,47,-19,-37,-92,92,22,8,-127,-4,66,97,-74,-9,-55,32,31, 
  /* [12][0][][] */ 127,-3,-15,15,2,19,4,100,21,-12,-58,-23,-1,14,-10,-3,-9,7,-3,-5,4,1,3,20,-1,16,-3,5,-4,14,-5,3,3,-65,-9,11,-18,-16,-30,0,-15,-79,7,-125,-55,-11,80,-4, 
  /* [13][0][][] */ 10,3,0,6,8,-10,2,1,0,6,4,22,-5,4,5,0,6,1,10,3,12,-12,8,-3,2,1,17,127,11,-4,7,-3,4,0,-38,20,9,-5,6,-15,-13,-3,1,5,-1,-2,-8,-13, 
  /* [14][0][][] */ 63,-23,47,-71,51,28,40,-99,-56,-56,-5,122,-71,-5,64,15,54,26,-54,69,20,14,74,-17,24,59,-33,-118,28,-36,61,48,-6,72,-127,-50,-40,45,89,10,-36,8,55,0,0,1,14,-29, 
  /* [15][0][][] */ -7,-52,-75,-38,57,28,77,-52,-10,22,-18,-35,84,22,-102,65,60,52,79,-85,-103,-25,57,-16,-95,45,29,57,57,52,48,-48,23,60,97,127,-19,-111,-9,-34,94,61,117,-52,-4,-33,-17,66, 
};
const TfArray<4, int> tensor_dimension21 = { 4, { 16,1,1,48 } };
const TfArray<16, float> quant21_scale = { 16, { 0.031428568065166473, 0.0358416847884655, 0.047414638102054596, 0.043997544795274734, 0.039130527526140213, 0.043790627270936966, 0.050191901624202728, 0.025201804935932159, 0.024593478068709373, 0.026990668848156929, 0.038618654012680054, 0.025951994583010674, 0.041144043207168579, 0.055035501718521118, 0.024942746385931969, 0.027469269931316376, } };
const TfLiteAffineQuantization quant21 = { (TfLiteFloatArray*)&quant21_scale, (TfLiteIntArray*)&g0::quant8_zero, 0 };
const MODEL_SECTION(EI_MODEL_SECTION) ALIGN(16) int32_t tensor_data22[48] = { 3357, 37020, -1192, 38954, 4520, 126757, -2151, 50796, 3122, 32978, 24140, 1305, 1027, 29028, -610, -1693, -475, 11, 830, -2270, 234, -2566, -594, -19703, -4547, 42267, 122616, 105999, 3195, 5236, -1872, 461, 23159, 504, 35955, -313, 55237, 1803, 49325, 2338, 1349, 59992, 108, 3296, 50984, -393, 2086, 48859, };
const TfArray<1, int> tensor_dimension22 = { 1, { 48 } };
const TfArray<48, float> quant22_scale = { 48, { 7.5216499681118876e-05, 3.6042092688148841e-05, 0.00017326805391348898, 5.6815544667188078e-05, 0.00013968515850137919, 6.6826745751313865e-05, 0.00015786901349201798, 0.00011398562492104247, 8.1073623732663691e-05, 4.0204438846558332e-05, 5.0281847506994382e-05, 0.00010004881187342107, 4.2493775254115462e-05, 3.8435118767665699e-05, 0.00015886258915998042, 0.00019779207650572062, 0.0001730584044707939, 7.7676791988778859e-05, 0.00013157840294297785, 0.00014052260667085648, 8.9355358795728534e-05, 0.00018936044943984598, 0.00010375092824688181, 0.00012885036994703114, 0.00010318736894987524, 0.00010490909335203469, 2.2732547222403809e-05, 6.4577143348287791e-05, 0.00011865710257552564, 9.6836578450165689e-05, 0.0001105706614907831, 0.00014281901530921459, 5.1301325584063306e-05, 0.0001362815237371251, 2.9067767172819003e-05, 5.6064491218421608e-05, 0.00010523763194214553, 9.0882735094055533e-05, 0.0001183209169539623, 8.6834108515176922e-05, 0.00010549305443419144, 9.7097610705532134e-05, 8.6024389020167291e-05, 8.6979984189383686e-05, 3.1634364859201014e-05, 0.00016367340867873281, 0.00010252952051814646, 3.1983039662009105e-05, } };
const TfArray<48, int> quant22_zero = { 48, { 0,0,0,0,0,0,0,0,0,0,0,0,0,0,0,0,0,0,0,0,0,0,0,0,0,0,0,0,0,0,0,0,0,0,0,0,0,0,0,0,0,0,0,0,0,0,0,0 } };
const TfLiteAffineQuantization quant22 = { (TfLiteFloatArray*)&quant22_scale, (TfLiteIntArray*)&quant22_zero, 0 };
const MODEL_SECTION(EI_MODEL_SECTION) ALIGN(16) int8_t tensor_data23[1*3*3*48] = { 
  /* [0][0][][] */ 69,-92,97,70,53,-34,106,-64,59,-88,-80,47,51,-42,-72,-90,101,78,49,78,66,-74,-83,50,-32,-40,-64,-64,-67,61,-63,-114,-13,41,69,64,-65,53,-50,-22,50,-73,57,62,-94,11,75,-33, 82,-96,127,85,-77,-68,-57,-84,96,-102,-63,74,79,-109,-96,91,-38,96,82,127,85,-116,52,71,-52,-77,-68,-80,56,79,-30,-127,-86,79,81,83,-82,82,-82,-16,76,-94,83,89,-73,-127,93,-103, 34,-46,70,37,18,-41,-47,-39,42,-31,5,34,29,-78,-55,-2,-54,37,34,70,33,-55,31,26,-28,-45,-44,-22,31,30,88,-89,-84,43,35,34,-29,39,-37,-10,40,-40,34,42,-6,-9,36,-73, 
